float weights_bn_0_1[9]={3.997730910778046e-01,3.102033734321594e-01,1.204005122184753e+00,3.367017209529877e-02,1.243211984634399e+00,1.063985586166382e+00,8.128690123558044e-01,5.346111059188843e-01,8.141230344772339e-01};
float weights_bn_1_1[9]={-9.959959425032139e-03,-4.484915174543858e-03,3.340804874897003e-01,2.287632226943970e-02,1.243041604757309e-01,-6.900279223918915e-02,-1.460966467857361e-02,2.401535063982010e-01,7.607274502515793e-02};
float weights_bn_2_1[9]={-4.188457965850830e+00,7.990618896484375e+01,2.406776885986328e+02,1.201188802719116e+00,1.499706208705902e-01,1.844712346792221e-02,1.956894695758820e-01,3.113967776298523e-01,1.231966465711594e-01};
float weights_bn_3_1[9]={5.921954687500000e+04,5.067902734375000e+04,9.192820312500000e+04,6.375617218017578e+01,9.936724603176117e-02,9.921615570783615e-02,4.055176675319672e-02,1.325744017958641e-02,8.416423201560974e-02};
float weights_tr1_0_1[9][49]={
	{5.150673389434814e-01,7.118805050849915e-01,-3.942369669675827e-02,-2.928449809551239e-01,-3.064129054546356e-01,1.106720790266991e-01,7.733085751533508e-02,-4.879263788461685e-02,6.244867444038391e-01,5.315664038062096e-02,5.442705750465393e-01,-6.011642143130302e-02,4.165921509265900e-01,-1.260142624378204e-01,-9.013070464134216e-01,5.098753571510315e-01,-1.838171184062958e-01,-7.301671896129847e-03,3.162305057048798e-01,-5.025390069931746e-03,1.639644615352154e-02,-1.369465328752995e-02,1.187139526009560e-01,-2.839584350585938e-01,-7.571880519390106e-02,-1.163142621517181e-01,4.513399899005890e-01,3.499782457947731e-02,1.245169565081596e-01,1.758611388504505e-02,-1.844652891159058e-01,-1.123837940394878e-02,3.950053751468658e-01,6.007561460137367e-02,-7.005379348993301e-02,-2.395252697169781e-02,-1.110571175813675e-01,-1.537672430276871e-01,-2.889486216008663e-02,-1.817592978477478e-01,-1.773187890648842e-02,-2.465039677917957e-02,-6.263209134340286e-02,-8.815301954746246e-02,7.947452068328857e-01,3.752280771732330e-01,-4.317880049347878e-02,4.226711392402649e-02,3.075114786624908e-01},
	{-1.808639615774155e-01,-1.129087358713150e-01,-5.758131295442581e-02,-4.662086367607117e-01,-7.169333845376968e-02,-1.501164585351944e-01,-4.998560622334480e-02,9.150003083050251e-03,-2.761208415031433e-01,-1.137489303946495e-01,-1.958870440721512e-01,-3.395873308181763e-02,-9.101191163063049e-02,3.168445453047752e-02,2.442926615476608e-01,-1.700214743614197e-01,-1.843503266572952e-01,5.576426163315773e-02,1.568289250135422e-01,-6.953933089971542e-02,2.942726202309132e-02,-4.605334997177124e-02,4.459363967180252e-02,-1.873219609260559e-01,2.427050285041332e-02,9.009706228971481e-02,-8.789461255073547e-01,2.160193771123886e-02,9.919551014900208e-02,2.915879487991333e-01,-7.678143382072449e-01,-1.190950199961662e-01,-1.983445584774017e-01,1.498504728078842e-01,2.803182899951935e-01,-1.441864222288132e-01,-1.608677394688129e-02,1.393231898546219e-01,-6.267910450696945e-02,-2.519804239273071e-01,-1.762696169316769e-02,1.404621917754412e-02,-3.884025290608406e-02,-1.792004555463791e-01,-7.376940846443176e-01,6.885176151990891e-02,1.561573892831802e-01,-9.240224212408066e-02,5.544729158282280e-02},
	{2.740082098171115e-03,-4.482926130294800e-01,1.107977747917175e+00,-3.932391405105591e-01,3.631829619407654e-01,-7.077449560165405e-01,-1.187354087829590e+00,3.440291881561279e-01,3.985745459794998e-02,1.188828423619270e-01,-1.200026646256447e-01,5.123271942138672e-01,-1.517045497894287e-01,-7.944741845130920e-01,1.190903857350349e-01,-1.338877528905869e-01,-3.828758895397186e-01,1.324180245399475e+00,-4.522596597671509e-01,5.862273573875427e-01,9.633421301841736e-01,-5.677137970924377e-01,5.567822456359863e-01,-4.021639004349709e-02,-4.539807736873627e-01,-6.355737447738647e-01,1.919643282890320e-01,2.294518239796162e-02,-3.949232101440430e-01,-2.083247303962708e-01,-3.459892049431801e-02,2.193792909383774e-01,-4.514139518141747e-02,8.051843047142029e-01,1.271026134490967e-01,1.174799799919128e+00,6.265233457088470e-02,-5.345515161752701e-02,7.203809916973114e-02,-2.258046343922615e-02,8.901142515242100e-03,4.857101440429688e-01,-3.190861940383911e-01,4.797230362892151e-01,2.178153544664383e-01,6.439334154129028e-01,6.633546352386475e-01,2.407999783754349e-01,1.991882547736168e-02},
	{1.261928826570511e-01,3.963243961334229e-02,-4.625161290168762e-01,1.003183349967003e-01,6.383001059293747e-02,-3.422076404094696e-01,6.564226001501083e-02,2.240498065948486e-01,-4.116522371768951e-01,-4.477817714214325e-01,5.151432752609253e-01,-1.846880465745926e-02,2.183825373649597e-01,1.102093514055014e-02,-8.639407902956009e-02,-9.883061051368713e-02,-4.262917041778564e-01,2.872340977191925e-01,4.971052706241608e-02,9.188098460435867e-02,1.012014225125313e-01,-5.911442264914513e-02,-1.328585296869278e-02,1.138032600283623e-01,2.976400256156921e-01,2.478946447372437e-01,-2.274149209260941e-01,-1.654534786939621e-01,-1.277177482843399e-01,3.370458632707596e-02,2.071122527122498e-01,1.598726026713848e-03,-1.096610911190510e-03,-1.066257804632187e-02,2.316680252552032e-01,-3.036435246467590e-01,-4.082473739981651e-02,2.977855503559113e-02,-9.685117602348328e-01,1.180592700839043e-01,-3.489167615771294e-02,-1.355658322572708e-01,5.280771851539612e-01,7.173175457865000e-03,-8.381157368421555e-02,2.799334377050400e-02,4.941397607326508e-01,2.531884796917439e-02,6.814194917678833e-01},
	{8.234079927206039e-02,-2.411931306123734e-01,-1.902269124984741e-01,2.903847694396973e-01,-8.037285208702087e-01,4.504997730255127e-01,4.092732369899750e-01,-1.137006059288979e-01,1.842752099037170e-01,-7.400206327438354e-01,-4.694938659667969e-01,1.106660366058350e-01,5.756127089262009e-02,7.055992484092712e-01,-1.177068129181862e-01,6.034048795700073e-01,1.139840260148048e-01,-2.770935930311680e-02,3.407065868377686e-01,-3.131121098995209e-01,-3.857287764549255e-01,4.243192970752716e-01,-2.420361936092377e-01,8.144266158342361e-02,6.368931531906128e-01,3.625678271055222e-02,-3.431006073951721e-01,5.280949473381042e-01,6.025204658508301e-01,-2.406190633773804e-01,6.787349581718445e-01,-1.354148089885712e-01,-1.708766072988510e-01,5.843933820724487e-01,5.031289458274841e-01,-2.465920597314835e-01,-3.986583091318607e-03,3.930385783314705e-02,3.917855620384216e-01,1.268854178488255e-02,2.815700769424438e-01,3.694233000278473e-01,9.808391928672791e-01,-7.089526653289795e-01,2.071386277675629e-01,-1.729257106781006e-01,-3.108242750167847e-01,-1.362445801496506e-01,-8.133535087108612e-02},
	{-2.631048560142517e-01,-1.728824377059937e-01,-5.768444389104843e-02,-1.331511139869690e-01,-5.236009955406189e-01,-8.765257894992828e-02,3.060392141342163e-01,-6.748682260513306e-01,5.524953603744507e-01,-5.597894787788391e-01,-7.738741636276245e-01,3.426426649093628e-02,2.614165842533112e-01,3.558949530124664e-01,-7.995557785034180e-02,5.594066977500916e-01,4.416922032833099e-01,6.658039242029190e-02,1.725357770919800e-01,-4.594701528549194e-01,-7.257962822914124e-01,1.177228540182114e-01,-3.060416877269745e-02,3.979648351669312e-01,2.481839060783386e-01,-2.633841633796692e-01,-1.495908349752426e-01,4.615201652050018e-01,4.612002074718475e-01,-1.544351130723953e-01,4.241032004356384e-01,8.330327272415161e-01,8.365675061941147e-02,2.704100310802460e-01,5.125280618667603e-01,-4.348951205611229e-02,-4.842467308044434e-01,2.793431282043457e-01,6.543674468994141e-01,9.622845798730850e-02,1.905333399772644e-01,2.356525063514709e-01,7.928501367568970e-01,-7.254590392112732e-01,4.544565081596375e-01,-2.961481511592865e-01,-4.165238738059998e-01,-7.118260115385056e-02,-3.132323920726776e-01},
	{-1.812708824872971e-01,-2.435659803450108e-02,4.297479391098022e-01,-8.877249807119370e-02,-2.942300438880920e-01,-6.824899911880493e-01,-5.820360779762268e-02,-2.571944296360016e-01,1.538421064615250e-01,3.035194575786591e-01,-2.140211611986160e-01,-1.717831045389175e-01,-2.968850731849670e-01,3.452782928943634e-01,-1.116231307387352e-01,3.563795387744904e-01,-3.239613175392151e-01,5.505281314253807e-02,7.216346263885498e-02,2.382219135761261e-01,-2.018149197101593e-01,5.015846490859985e-01,-3.471410572528839e-01,4.713083803653717e-01,-5.314385890960693e-01,-4.765950143337250e-01,9.358871728181839e-02,3.598653674125671e-01,2.421526052057743e-02,-5.125985741615295e-01,5.113294348120689e-02,8.161549568176270e-01,-1.864270567893982e-01,-9.135953336954117e-02,2.246432155370712e-01,9.255808591842651e-02,5.785501599311829e-01,-2.174455299973488e-02,4.264693707227707e-02,7.839440703392029e-01,-4.433508813381195e-01,-3.099667467176914e-02,-2.206235378980637e-01,-2.987265586853027e-02,-9.603516757488251e-02,1.433131545782089e-01,-4.865368306636810e-01,6.644821166992188e-01,1.337805110961199e-02},
	{-1.852052509784698e-01,-2.676159441471100e-01,9.071471542119980e-02,7.859493046998978e-02,-7.007029652595520e-02,1.889297664165497e-01,-1.595114320516586e-01,4.545583426952362e-01,1.833439320325851e-01,-4.125924706459045e-01,-2.925988733768463e-01,6.670357584953308e-01,-3.735480457544327e-02,-2.683078944683075e-01,-3.046795725822449e-01,-1.062318757176399e-01,4.179277122020721e-01,-1.188190281391144e-01,-4.407176971435547e-01,4.539234638214111e-01,1.463053822517395e-01,2.181318849325180e-01,5.288108587265015e-01,-7.410039752721786e-02,-6.136254966259003e-02,-1.552041023969650e-01,2.945704851299524e-03,-1.180255711078644e-01,-2.884410507977009e-02,4.290562495589256e-02,-2.890661954879761e-01,-4.789435490965843e-02,5.470175743103027e-01,-9.485877305269241e-02,1.927337050437927e-02,3.195299208164215e-02,-1.581846177577972e-01,-4.576335549354553e-01,3.219317495822906e-01,-4.244670569896698e-01,9.121243953704834e-01,4.372612833976746e-01,-1.605099588632584e-01,-3.805219009518623e-02,2.575939297676086e-01,-4.538753628730774e-01,8.648713678121567e-02,-4.734380543231964e-02,3.475465178489685e-01},
	{5.973920822143555e-01,-1.800375133752823e-01,-2.090503722429276e-01,6.122694611549377e-01,-1.540846377611160e-01,1.775150448083878e-01,1.979754865169525e-01,-3.333054780960083e-01,4.054992496967316e-01,1.172071881592274e-02,-2.547356486320496e-01,-1.790118664503098e-01,-4.806810021400452e-01,2.440942078828812e-02,-4.414766728878021e-01,1.702302508056164e-02,6.574635505676270e-01,1.090750843286514e-01,3.152576386928558e-01,-5.715848132967949e-02,-2.504413425922394e-01,-3.191508352756500e-02,3.378795385360718e-01,-8.055558800697327e-02,-1.319495737552643e-01,7.145259976387024e-01,-1.522570252418518e-01,-5.409555435180664e-01,3.774256110191345e-01,1.418471038341522e-01,-2.269357889890671e-01,3.708352893590927e-02,3.678314983844757e-01,-1.257367581129074e-01,5.905263423919678e-01,-2.363709062337875e-01,-1.407482177019119e-01,-3.984006047248840e-01,1.139900926500559e-02,-5.510493516921997e-01,1.167609319090843e-01,-4.953651726245880e-01,1.776515245437622e-01,1.965372860431671e-01,-2.260141074657440e-01,1.267459709197283e-02,-4.567854106426239e-01,-6.952424645423889e-01,-4.391742646694183e-01}};
float weights_tr1_1_1[49]={-2.251680754125118e-02,-2.602845132350922e-01,6.084064841270447e-01,-2.344646453857422e-01,3.499245643615723e-01,-2.270650118589401e-01,2.509515583515167e-01,9.864680469036102e-02,1.892276108264923e-01,3.981333374977112e-01,-2.795011401176453e-01,9.953315556049347e-02,-3.213740885257721e-01,3.282918035984039e-01,4.390552267432213e-02,1.070023775100708e-01,1.359693408012390e-01,1.914599388837814e-01,4.600314497947693e-01,-6.916127353906631e-02,1.287966221570969e-02,5.037511587142944e-01,-3.985005896538496e-03,-8.409888148307800e-01,-1.724631935358047e-01,-5.131646394729614e-01,-7.371599227190018e-02,-5.951979383826256e-02,4.950048923492432e-01,-8.159729093313217e-02,-3.645564615726471e-01,3.477013111114502e-01,1.946044117212296e-01,1.983353197574615e-01,-1.019775718450546e-01,2.297551184892654e-01,3.320165723562241e-02,-3.128403127193451e-01,2.383845858275890e-03,-1.674919873476028e-01,-2.957676351070404e-01,-2.896232008934021e-01,-1.912953853607178e-01,3.928383886814117e-01,-5.321372747421265e-01,-7.501491904258728e-01,-5.116298198699951e-01,-1.190252974629402e-01,-5.319986939430237e-01};
float weights_tr2_0_1[49][35]={
	{1.175943762063980e-01,2.656977176666260e-01,-2.701419889926910e-01,5.081673339009285e-02,2.099632471799850e-01,4.403536673635244e-03,2.114430516958237e-01,-5.103012919425964e-01,-1.422084271907806e-01,-2.885208837687969e-02,2.367638796567917e-01,-3.693010509014130e-01,-5.479284524917603e-01,-5.622581243515015e-01,-3.494623675942421e-02,9.726587682962418e-02,-1.531654503196478e-02,-2.926231622695923e-01,-6.020443439483643e-01,3.236028254032135e-01,-3.735199198126793e-02,2.627829462289810e-02,-2.279536873102188e-01,-3.147901892662048e-01,-6.738973408937454e-02,6.741530727595091e-03,-4.198399484157562e-01,1.043814048171043e-01,-1.516778171062469e-01,-7.906135916709900e-01,5.377998948097229e-01,-3.939718604087830e-01,-3.760802745819092e-02,-8.192846924066544e-02,2.227280437946320e-01},
	{1.265256479382515e-02,1.935565471649170e-01,-4.139438644051552e-02,-1.650133728981018e-02,1.499518454074860e-01,2.808166742324829e-01,1.841506361961365e-01,2.741543054580688e-01,-4.695081114768982e-01,-3.419403731822968e-01,-1.654389053583145e-01,1.599844545125961e-01,2.623958587646484e-01,-2.006606161594391e-01,-1.192052066326141e-01,-2.127166241407394e-01,4.093218594789505e-02,-2.859950065612793e-01,-1.190114021301270e-02,1.767956316471100e-01,9.504456073045731e-02,2.667374350130558e-02,-9.792264550924301e-02,2.242632908746600e-03,-2.405758202075958e-02,8.847580552101135e-01,-6.273673176765442e-01,-4.159371256828308e-01,-1.537386029958725e-01,-7.664361596107483e-02,-3.143522739410400e-01,1.971520036458969e-01,-2.396978586912155e-01,-7.256981134414673e-01,-1.323008388280869e-01},
	{-5.782104134559631e-01,-2.080138474702835e-01,9.828847646713257e-01,-3.723758459091187e-01,-3.175036311149597e-01,2.219344079494476e-01,-6.895200014114380e-01,-6.724493205547333e-02,1.410878747701645e-01,3.891841471195221e-01,-5.076648592948914e-01,-3.251364827156067e-01,-1.555128768086433e-02,-2.994109392166138e-01,-1.058403402566910e-01,7.359640598297119e-01,3.091723620891571e-01,4.309405684471130e-01,-1.111086905002594e-01,5.315536856651306e-01,2.122931368649006e-02,9.182515144348145e-01,-5.544800162315369e-01,1.250167638063431e-01,7.075620889663696e-01,3.442092537879944e-01,-2.446784265339375e-02,-2.021522969007492e-01,-2.641587853431702e-01,2.931181788444519e-01,1.223699748516083e-01,-1.218459904193878e-01,3.092967569828033e-01,-3.516857326030731e-02,1.338166594505310e-01},
	{1.761305779218674e-01,-7.666675746440887e-02,1.109969802200794e-02,4.460452869534492e-02,-1.405710875988007e-01,2.262012809514999e-01,4.885579347610474e-01,2.451436519622803e-01,1.782526969909668e-01,3.483401238918304e-01,5.793734267354012e-02,-5.603889226913452e-01,8.046473860740662e-01,-7.902510166168213e-01,2.900573313236237e-01,1.662469655275345e-01,-4.629840701818466e-02,8.732064068317413e-02,-2.066700160503387e-01,-9.346972405910492e-02,4.354345500469208e-01,-3.306994959712029e-02,-1.794497072696686e-01,4.500529468059540e-01,-3.420691564679146e-02,4.346416294574738e-01,4.921779930591583e-01,-6.898811552673578e-03,-5.207232665270567e-03,9.120526313781738e-01,9.350255876779556e-02,7.110781967639923e-02,-2.549448013305664e-01,-3.174521028995514e-01,4.200171828269958e-01},
	{1.621143668889999e-01,-4.534358158707619e-03,-8.184036705642939e-04,-1.680183112621307e-01,-2.778744101524353e-01,1.785761564970016e-01,-1.052129194140434e-01,1.273135542869568e+00,-4.588510468602180e-02,1.278694719076157e-01,-6.155738979578018e-02,-8.430770039558411e-01,-4.288596510887146e-01,1.047584190964699e-01,-2.051931768655777e-01,-1.505921781063080e-01,-2.214870182797313e-03,2.380538731813431e-02,9.916037321090698e-02,-1.958484016358852e-02,7.415359616279602e-01,-9.804876148700714e-02,1.107633784413338e-01,-2.619625329971313e-01,-4.448455572128296e-02,-1.401785314083099e-01,-4.781324267387390e-01,-4.662575665861368e-03,9.711869806051254e-02,5.195941030979156e-02,-1.422155946493149e-01,-2.281777113676071e-01,-3.654379546642303e-01,4.656072705984116e-02,-7.478147149085999e-01},
	{1.108609139919281e-01,2.776589989662170e-01,5.059894919395447e-02,2.396242916584015e-01,-2.799406088888645e-02,1.273882836103439e-01,1.280000090599060e+00,-2.173761650919914e-02,-6.127893179655075e-02,1.049990281462669e-01,1.399944573640823e-01,2.523421347141266e-01,-8.808927237987518e-02,-1.846535056829453e-01,-2.782147824764252e-01,-5.778152942657471e-01,6.637400388717651e-02,1.157665401697159e-01,2.107465267181396e-01,-2.338711023330688e-01,-5.723046064376831e-01,-8.196198940277100e-01,5.451633930206299e-01,-6.145527362823486e-01,6.722401082515717e-02,-6.573653817176819e-01,-4.701591134071350e-01,2.038994058966637e-02,-1.904495209455490e-01,-1.804325878620148e-01,3.141125291585922e-02,3.598077297210693e-01,3.616142272949219e-01,2.908790484070778e-02,3.090230822563171e-01},
	{-6.350739598274231e-01,8.020481094717979e-03,2.584621682763100e-02,-4.637416452169418e-02,-1.959549784660339e-01,5.430776253342628e-02,-1.165503263473511e+00,2.041554003953934e-01,-1.088314503431320e-02,4.817179739475250e-01,4.712440073490143e-01,-5.056219696998596e-01,-1.987654268741608e-01,2.514974772930145e-01,7.891260832548141e-02,2.762940227985382e-01,-4.742031171917915e-02,2.054182738065720e-01,-6.037607043981552e-02,-3.639667034149170e-01,-4.778231978416443e-01,-4.426492005586624e-02,-1.269692834466696e-02,-7.567296177148819e-02,-6.033558249473572e-01,1.854869276285172e-01,3.093931078910828e-02,-4.218120872974396e-02,-3.414523303508759e-01,-1.282128542661667e-01,1.503180563449860e-01,-3.183668851852417e-02,7.045315504074097e-01,-7.463737130165100e-01,1.147819384932518e-01},
	{1.453870385885239e-01,9.751797653734684e-03,3.917329609394073e-01,3.883139193058014e-01,1.611856669187546e-01,4.797331094741821e-01,-4.888523370027542e-02,4.657351076602936e-01,2.735421247780323e-02,-2.434280067682266e-01,-2.994054853916168e-01,-8.654217720031738e-01,6.017933040857315e-02,1.175722852349281e-01,-8.496856689453125e-01,2.739383578300476e-01,-8.256417699158192e-03,6.666335463523865e-02,-2.237847447395325e-01,-8.106855154037476e-01,4.901351034641266e-01,-2.262522233650088e-03,-9.313753992319107e-02,-1.400582939386368e-01,2.406736910343170e-01,1.826990395784378e-03,-3.268115222454071e-02,8.151792734861374e-02,2.810409963130951e-01,-2.705923020839691e-01,4.865690693259239e-02,-7.871878147125244e-02,-7.444460988044739e-01,2.465769648551941e-01,2.583242058753967e-01},
	{1.264900267124176e-01,-3.090583682060242e-01,4.464305564761162e-02,9.920469671487808e-02,1.813682764768600e-01,-1.991008371114731e-01,-4.899130389094353e-02,1.624099016189575e-01,-6.472736001014709e-01,-6.744703650474548e-01,1.081214100122452e-01,-1.494084298610687e-01,-4.870092272758484e-01,-2.328957915306091e-01,3.406451642513275e-01,5.351707935333252e-01,1.509799212217331e-01,2.793588042259216e-01,3.339435532689095e-02,-2.423648536205292e-01,-1.290766149759293e-01,-4.936857521533966e-02,2.452422529459000e-01,4.314599335193634e-01,3.392615914344788e-02,2.544564902782440e-01,5.937578082084656e-01,2.526463270187378e-01,-1.168719679117203e-01,2.057622559368610e-02,1.869594305753708e-01,-6.989204287528992e-01,-2.103186249732971e-01,-3.427604436874390e-01,-6.528778374195099e-02},
	{-4.919264614582062e-01,2.005271613597870e-02,-3.298519253730774e-01,-4.874522089958191e-01,9.801710397005081e-02,-1.102254867553711e+00,-5.172875523567200e-01,1.290486305952072e-01,-5.400172248482704e-02,1.026168465614319e-01,2.932885289192200e-01,3.562141656875610e-01,-2.743074297904968e-01,2.930815219879150e-01,-1.176710724830627e+00,-3.942958414554596e-01,-9.962011873722076e-02,7.298765331506729e-02,1.135994344949722e-01,8.276876807212830e-01,5.728393793106079e-01,6.559491157531738e-01,-2.836796939373016e-01,7.935206405818462e-03,-3.280123770236969e-01,-4.024756848812103e-01,9.621389210224152e-02,-1.612523049116135e-01,-5.643357057124376e-03,2.287087142467499e-01,-2.739190161228180e-01,-2.621549665927887e-01,2.544308304786682e-01,7.351203262805939e-02,2.387162148952484e-01},
	{8.436186611652374e-02,7.834448218345642e-01,-2.344013191759586e-03,2.211333364248276e-01,-6.943152099847794e-02,-6.732813715934753e-01,-2.383159101009369e-01,-1.816551536321640e-01,1.527009308338165e-01,4.453128278255463e-01,2.783159539103508e-02,-3.339902758598328e-01,4.672542810440063e-01,1.514466553926468e-01,2.466922998428345e-01,-3.511761501431465e-02,2.822996079921722e-01,1.883955150842667e-01,2.688520848751068e-01,-1.382717490196228e-01,9.488964825868607e-02,6.588549166917801e-02,-7.070921361446381e-02,-3.886120617389679e-01,1.411528289318085e-01,-4.248730093240738e-02,-7.961640357971191e-01,2.105403095483780e-01,-7.400503009557724e-02,-3.868863582611084e-01,3.665192723274231e-01,7.851759791374207e-01,-4.337963089346886e-02,-9.374324679374695e-01,-7.701024413108826e-02},
	{-4.180854856967926e-01,-1.774720288813114e-02,9.126572310924530e-02,-4.670936167240143e-01,-2.955583631992340e-01,-5.034290254116058e-02,2.699822485446930e-01,6.252508144825697e-03,7.085612416267395e-02,1.398076564073563e-01,-7.236437797546387e-01,1.627489924430847e-01,-6.868432462215424e-02,-2.848989665508270e-01,-5.554809048771858e-02,2.650437355041504e-01,-8.660171031951904e-01,-6.991638541221619e-01,-2.449868619441986e-01,-5.091675519943237e-01,-1.992048919200897e-01,-5.247288569808006e-02,1.620899140834808e-01,7.038672268390656e-02,2.200724482536316e-01,1.263446658849716e-01,-1.858603209257126e-01,8.544440567493439e-02,4.270602166652679e-01,1.371476948261261e-01,-4.818005263805389e-01,5.146637931466103e-02,4.706216976046562e-02,-4.563455879688263e-01,1.679535359144211e-01},
	{6.878831237554550e-02,3.420554995536804e-01,5.426301807165146e-02,3.450196236371994e-02,-1.647079735994339e-02,-3.213195204734802e-01,-4.196499586105347e-01,6.771196722984314e-01,1.676906347274780e-01,-4.331486225128174e-01,4.315412342548370e-01,4.968556165695190e-01,1.112381666898727e-01,-3.202239871025085e-01,1.457629054784775e-01,1.398726850748062e-01,1.249768137931824e-01,5.139557272195816e-02,8.152185380458832e-02,1.907262019813061e-02,7.194878067821264e-03,-7.859060913324356e-02,-1.250899136066437e-01,2.238766252994537e-01,-1.890660822391510e-01,3.496174812316895e-01,1.662149280309677e-02,-5.138227343559265e-01,1.946425884962082e-01,-5.151081085205078e-01,-4.805140793323517e-01,2.152159959077835e-01,4.386402070522308e-01,3.868948519229889e-01,2.516791820526123e-01},
	{1.678841561079025e-01,-7.498744130134583e-02,-1.472736448049545e-01,-4.926542639732361e-01,3.306856453418732e-01,-3.428984880447388e-01,-6.281853914260864e-01,1.200157031416893e-01,9.690035879611969e-02,9.056577086448669e-02,6.828089952468872e-01,-1.351279914379120e-01,1.565979868173599e-01,1.348604261875153e-01,-5.981677025556564e-02,-1.626512855291367e-01,1.399430185556412e-01,-2.695452868938446e-01,3.438781201839447e-01,2.681541442871094e-01,4.709487259387970e-01,-4.329078271985054e-02,1.553554832935333e-01,-5.533481389284134e-02,5.364991426467896e-01,3.797826170921326e-02,7.632631808519363e-02,4.226416721940041e-02,4.547256231307983e-01,-4.520680904388428e-01,-1.234872579574585e+00,5.474046245217323e-02,1.030811816453934e-01,-5.528187155723572e-01,-4.055864810943604e-01},
	{-1.113821938633919e-01,-3.474468365311623e-02,4.580307379364967e-02,1.004105508327484e-01,1.003404706716537e-02,-2.171765416860580e-01,1.520761102437973e-01,-6.435871124267578e-01,-3.701253235340118e-01,3.961160182952881e-01,1.490447223186493e-01,3.991957902908325e-01,-4.356997311115265e-01,1.037133857607841e-01,1.427168995141983e-01,-2.676329314708710e-01,-3.102125525474548e-01,4.192724823951721e-02,3.711702525615692e-01,7.445001602172852e-02,-1.792344730347395e-03,1.078107859939337e-02,-8.775214850902557e-02,-2.072181999683380e-01,1.661610454320908e-01,-2.257086932659149e-01,-6.915953159332275e-01,1.082982346415520e-01,7.668196409940720e-02,2.161500602960587e-01,2.019531577825546e-01,-5.771389603614807e-01,1.407417654991150e-01,2.507489025592804e-01,2.661619782447815e-01},
	{1.760611981153488e-01,-3.729963004589081e-01,1.834187507629395e-01,-6.303482055664062e-01,-2.105708867311478e-01,2.552727758884430e-01,-3.948191702365875e-01,1.404289305210114e-01,-5.465117096900940e-01,6.081828474998474e-01,1.772107034921646e-01,4.191663861274719e-02,-5.608941316604614e-01,-1.423240005970001e-01,8.300089091062546e-02,6.547018885612488e-02,3.646797239780426e-01,-9.330429881811142e-02,-1.350344270467758e-01,-7.925650477409363e-02,-4.892669245600700e-02,-1.056155264377594e-01,5.447986349463463e-02,-1.200001165270805e-01,3.110383450984955e-02,-3.357959985733032e-01,-1.578210890293121e-01,1.081258952617645e-01,7.603903114795685e-02,6.503685712814331e-01,-1.349944949150085e+00,-2.672103643417358e-01,2.510419785976410e-01,-1.439978927373886e-01,-7.027041912078857e-01},
	{2.993418872356415e-01,-1.307868510484695e-01,-2.005410045385361e-01,-6.075736135244370e-02,2.949450314044952e-01,9.111172556877136e-01,4.065212607383728e-01,-4.154904559254646e-02,1.257363799959421e-02,-1.062945723533630e-01,-3.208127915859222e-01,2.904842197895050e-01,3.030600845813751e-01,1.082222983241081e-01,1.748367100954056e-01,-5.735067725181580e-01,3.841811418533325e-01,-1.578636318445206e-01,5.964133739471436e-01,-2.544760406017303e-01,3.305101096630096e-01,-3.339130580425262e-01,2.487252652645111e-01,-5.691505223512650e-02,2.103110849857330e-01,-7.542714476585388e-01,-3.559740781784058e-01,-8.819714933633804e-02,-1.690543293952942e-01,-1.611191779375076e-01,-2.314913421869278e-01,3.757784143090248e-02,5.725995302200317e-01,3.023352026939392e-01,4.022005498409271e-01},
	{-3.780150115489960e-01,-1.974718719720840e-01,-5.209222435951233e-02,4.944360256195068e-01,3.356678783893585e-01,-5.259479284286499e-01,9.800522327423096e-01,1.245814085006714e+00,4.826338216662407e-02,1.114444658160210e-01,3.457958996295929e-01,5.505485832691193e-02,-7.586528360843658e-02,4.464968442916870e-01,8.371692150831223e-02,-4.524965584278107e-01,1.934663057327271e-01,-1.044043451547623e-01,1.660954058170319e-01,-3.927329555153847e-02,8.807477355003357e-02,4.979082848876715e-03,5.369482561945915e-02,8.505491912364960e-02,-8.567677140235901e-01,-5.046600103378296e-01,2.445068024098873e-02,-2.938950061798096e-02,-1.295405160635710e-02,2.995226383209229e-01,-6.558428704738617e-02,-3.021946176886559e-02,-3.798333406448364e-01,8.257016539573669e-02,1.249289214611053e-01},
	{-2.561627924442291e-01,2.964624166488647e-01,-2.516957744956017e-02,3.562748730182648e-01,6.826606392860413e-02,-1.816543191671371e-01,-3.072499334812164e-01,-5.006459727883339e-02,1.777535974979401e-01,-6.662166118621826e-01,2.833285629749298e-01,8.281078934669495e-02,-4.025118052959442e-01,5.754016637802124e-01,-1.703689098358154e-01,-1.759696453809738e-01,-6.400361061096191e-01,3.846327960491180e-01,-7.811921089887619e-02,-2.890925109386444e-02,-1.240552589297295e-01,5.118442326784134e-02,8.579073101282120e-02,-2.993741333484650e-01,3.754737600684166e-02,2.173704206943512e-01,1.448111683130264e-01,-5.237518809735775e-03,6.216078996658325e-01,1.799712330102921e-01,3.983152508735657e-01,-8.638484030961990e-02,-1.523625701665878e-01,-6.564199328422546e-01,-2.135508954524994e-01},
	{-2.149881720542908e-01,3.122523427009583e-02,4.947554785758257e-03,-1.483517326414585e-02,-2.855209708213806e-01,-6.401269882917404e-02,2.962564826011658e-01,-4.783183038234711e-01,-1.065619587898254e-01,-2.815574407577515e-01,4.042055308818817e-01,6.023281216621399e-01,3.556132316589355e-02,1.395116150379181e-01,-1.692292541265488e-01,-3.473356738686562e-02,-1.227999091148376e+00,4.222619533538818e-01,9.027180075645447e-02,-2.356519252061844e-01,8.422139286994934e-01,6.804919242858887e-02,1.618556231260300e-01,3.231238126754761e-01,-2.265657335519791e-01,-2.534376271069050e-02,1.219190061092377e-01,5.176265910267830e-02,-4.783942699432373e-01,-1.744894124567509e-02,1.785890311002731e-01,6.707370281219482e-02,1.379734128713608e-01,-8.165329694747925e-02,-1.810715496540070e-01},
	{5.134335160255432e-01,-8.765389211475849e-03,1.031767129898071e+00,1.780101060867310e-01,-2.481013983488083e-01,-2.304937243461609e-01,-1.212629318237305e+00,-2.268716990947723e-01,-3.363774344325066e-02,-1.479933597147465e-02,-1.846049278974533e-01,-2.418940514326096e-01,1.478081494569778e-01,-5.336801335215569e-02,7.969232648611069e-02,-1.401980370283127e-01,-1.056130081415176e-01,-2.495041489601135e-01,2.449376732110977e-01,-7.306274175643921e-01,-1.958520114421844e-01,-1.471735388040543e-01,-5.016246438026428e-01,-1.835190355777740e-01,1.034162417054176e-01,-5.779128074645996e-01,6.159870699048042e-02,-4.995649307966232e-02,-3.026892058551311e-02,1.784414649009705e-01,3.400478363037109e-01,5.930949933826923e-03,-6.510857343673706e-01,4.521460235118866e-01,-6.566632390022278e-01},
	{-3.636637330055237e-01,1.114130765199661e-01,1.380109190940857e-01,-1.050324365496635e-02,-1.598322242498398e-01,-2.064822167158127e-01,4.478486478328705e-01,-1.512179384008050e-03,2.948208712041378e-02,6.822196394205093e-02,-4.428583979606628e-01,-5.232997611165047e-02,7.524822652339935e-02,3.227142095565796e-01,-2.953299880027771e-02,-9.716737270355225e-01,3.855879008769989e-01,-3.979715108871460e-01,1.380265802145004e-01,-3.791295289993286e-01,2.815813422203064e-01,-1.516274660825729e-01,-2.646056003868580e-03,2.925893962383270e-01,3.051921725273132e-01,1.967355422675610e-02,9.050995856523514e-02,-9.190287441015244e-02,-5.403879880905151e-01,3.224080801010132e-01,7.057153582572937e-01,3.287984430789948e-02,7.153267506510019e-03,3.966016769409180e-01,-8.972688913345337e-01},
	{5.227842926979065e-01,2.106836065649986e-02,8.907774835824966e-02,-1.262940168380737e-01,-1.403828561306000e-01,-4.555065631866455e-01,8.264645934104919e-01,-2.192589193582535e-01,6.118897348642349e-02,9.085523337125778e-02,5.275536328554153e-02,-5.220928415656090e-02,-2.688581682741642e-02,-7.643705606460571e-01,2.403439581394196e-01,1.157466024160385e-01,-6.579584479331970e-01,6.813742965459824e-02,1.529471725225449e-01,-4.250690340995789e-01,1.268953979015350e-01,5.214777216315269e-02,-6.059339642524719e-01,1.242041587829590e-01,9.755121171474457e-02,8.506650477647781e-02,9.880176186561584e-02,-2.793475687503815e-01,1.613671481609344e-01,-7.254743576049805e-02,-1.898021548986435e-01,-1.144572813063860e-02,9.115810692310333e-02,5.087171792984009e-01,1.465267241001129e-01},
	{5.459691882133484e-01,2.189681977033615e-01,9.699376672506332e-02,-1.467212289571762e-01,-1.273104399442673e-01,1.359736621379852e-01,9.043118357658386e-02,2.467849552631378e-01,7.325883954763412e-02,-5.440479889512062e-02,-9.477770328521729e-01,-1.764645129442215e-01,-1.431318372488022e-01,-5.437018275260925e-01,-4.015608727931976e-01,-4.194680452346802e-01,3.229092359542847e-01,1.674930751323700e-01,1.754465252161026e-01,5.661529302597046e-01,-4.933791160583496e-01,-1.931638456881046e-02,-1.683693230152130e-01,4.866467118263245e-01,2.313976287841797e-01,4.805299639701843e-01,4.637990891933441e-01,-2.744604349136353e-01,-3.374476134777069e-01,3.559270799160004e-01,-7.245207428932190e-01,-1.252112537622452e-02,-4.843516349792480e-01,-5.049754977226257e-01,3.707228600978851e-02},
	{1.525958925485611e-01,3.404485993087292e-03,-5.822535976767540e-02,3.090485036373138e-01,4.504102170467377e-01,2.489933669567108e-01,1.927097141742706e-02,-2.608793079853058e-01,-2.960216999053955e-02,2.331984341144562e-01,5.478512048721313e-01,-6.400368362665176e-02,-2.923990488052368e-01,-3.113819360733032e-01,2.502321302890778e-01,-2.858733199536800e-02,7.959447056055069e-02,6.295698285102844e-01,-5.330513715744019e-01,3.734667897224426e-01,8.567717671394348e-01,7.565094828605652e-01,8.755952119827271e-01,-6.866475939750671e-01,3.535155653953552e-01,2.083443254232407e-01,2.220682948827744e-01,-1.304885894060135e-01,2.545847892761230e-01,-1.120839789509773e-01,5.148347094655037e-02,-2.254881896078587e-02,3.962049186229706e-01,1.128946840763092e-01,-1.600690782070160e-01},
	{-1.013659909367561e-01,8.069058507680893e-02,2.160524129867554e-01,8.761018514633179e-02,-4.527859687805176e-01,1.550902891904116e-02,-7.542663216590881e-01,4.147562384605408e-01,-2.001899629831314e-01,-1.796595603227615e-01,-9.003329873085022e-01,-1.548656611703336e-03,-2.039247900247574e-01,4.400166869163513e-01,-3.874965608119965e-01,-3.960901200771332e-01,-2.107525169849396e-01,-8.185887932777405e-01,1.160468757152557e-01,-4.549341797828674e-01,-9.659963846206665e-02,2.757100164890289e-01,6.716880798339844e-01,-4.692242443561554e-01,-3.509610295295715e-01,-4.865827504545450e-03,4.514080882072449e-01,-9.496982395648956e-02,3.758745491504669e-01,-7.294255495071411e-02,-7.549523562192917e-02,5.334432702511549e-03,1.634309301152825e-03,-2.329209297895432e-01,-5.190071463584900e-01},
	{2.858597226440907e-02,-2.172448486089706e-01,6.053055822849274e-02,-1.190454214811325e-01,1.515706628561020e-01,4.287718534469604e-01,1.405993252992630e-01,-4.243109002709389e-02,-2.706642746925354e-01,-6.559810638427734e-01,1.066413670778275e-01,-3.440678417682648e-01,2.634535916149616e-02,4.937156736850739e-01,-1.276879161596298e-01,-7.835468649864197e-02,2.110664546489716e-01,-9.434037655591965e-02,-3.279478102922440e-02,-1.079257205128670e-02,4.264163225889206e-02,-2.083025574684143e-01,4.273845255374908e-02,5.935105681419373e-01,-1.131619065999985e-01,2.595683932304382e-01,4.110123589634895e-02,-1.406569778919220e-01,-1.723582446575165e-01,1.686563640832901e-01,-1.494371891021729e-01,1.001656293869019e+00,1.832899898290634e-01,-8.222374320030212e-02,-5.052585154771805e-02},
	{2.592310905456543e-01,-2.346079424023628e-02,-1.103913858532906e-01,-3.030065596103668e-01,5.049903392791748e-01,3.671435713768005e-01,-7.221658229827881e-01,-2.003712505102158e-01,9.379255771636963e-02,-4.373865574598312e-02,7.928467392921448e-01,-1.720815598964691e-01,-9.057886898517609e-02,-5.819566920399666e-02,-1.012312844395638e-01,4.343177676200867e-01,-2.101680487394333e-01,-1.354465633630753e-01,7.198338955640793e-02,-2.059217393398285e-01,-2.476958930492401e-01,6.299223750829697e-02,-3.105746209621429e-01,-1.706631481647491e-01,-1.610790491104126e-01,4.570087492465973e-01,-2.117727696895599e-01,-1.639060676097870e-01,-8.847239017486572e-01,3.889513015747070e-01,3.561671078205109e-01,-1.393826752901077e-01,-3.146668672561646e-01,-1.063490733504295e-01,-6.407626271247864e-01},
	{-1.360265761613846e-01,1.961377561092377e-01,1.313307229429483e-02,3.314868807792664e-01,-2.457121759653091e-01,2.878843545913696e-01,-5.593392848968506e-01,-4.902168363332748e-02,3.426053524017334e-01,1.034505106508732e-02,1.194073855876923e-01,-2.037656158208847e-01,-7.973638176918030e-01,4.875106811523438e-01,5.802514031529427e-02,-9.550292044878006e-03,-5.058906078338623e-01,4.877126216888428e-02,-2.970136404037476e-01,1.693073287606239e-02,6.498297452926636e-01,3.418015316128731e-02,2.621637284755707e-02,3.786387294530869e-02,3.090174198150635e-01,1.678852140903473e-01,1.776343286037445e-01,-4.153053760528564e-01,5.663311481475830e-01,2.585321962833405e-01,-2.784653007984161e-02,-1.066008582711220e-01,-2.322862893342972e-01,8.986961841583252e-01,5.250841975212097e-01},
	{-4.621841758489609e-02,-7.162292301654816e-02,-6.917676329612732e-02,-4.275818467140198e-01,3.344472646713257e-01,5.448055863380432e-01,-1.391995251178741e-01,7.632356882095337e-02,3.689060509204865e-01,2.391260713338852e-01,4.213853776454926e-01,2.079539000988007e-01,5.929707288742065e-01,-4.282990694046021e-01,-3.569967672228813e-02,-2.879938483238220e-01,3.677853643894196e-01,1.755031943321228e-01,-2.456969320774078e-01,7.299819961190224e-03,-6.395860016345978e-02,1.890251338481903e-01,1.991662085056305e-01,-7.926341891288757e-02,-1.099032014608383e-01,1.542816460132599e-01,3.404832631349564e-02,4.005562067031860e-01,-7.073309272527695e-02,2.954237163066864e-01,-2.287598550319672e-01,5.643173120915890e-03,-6.800521165132523e-02,4.973196089267731e-01,-3.542013466358185e-01},
	{-1.841968297958374e-01,-2.603952027857304e-02,3.301011398434639e-02,5.511977244168520e-03,2.283676117658615e-01,2.101170420646667e-01,-2.811256051063538e-01,5.165177583694458e-02,4.935921430587769e-01,8.812986016273499e-01,8.444228023290634e-02,5.865671038627625e-01,-1.043680548667908e+00,3.318292796611786e-01,2.786210179328918e-01,2.496665120124817e-01,-2.312835678458214e-02,-5.345210433006287e-01,-4.689833894371986e-02,9.296806901693344e-02,-1.149680316448212e-01,2.830839529633522e-02,-6.214929372072220e-02,9.587675333023071e-01,-2.355677038431168e-01,-6.823229044675827e-02,4.167353808879852e-01,-1.911977492272854e-02,2.047740966081619e-01,5.723698139190674e-01,-9.069639444351196e-02,7.479875683784485e-01,-6.424336135387421e-02,-3.881087899208069e-02,1.877391338348389e-02},
	{4.346890002489090e-02,-7.353130728006363e-02,-6.887817978858948e-01,6.465257704257965e-02,1.741463840007782e-01,-1.622129082679749e-01,-9.872168302536011e-01,1.245885342359543e-01,1.176506802439690e-01,-2.950500249862671e-01,6.397050023078918e-01,6.051437854766846e-01,3.955455422401428e-01,1.244935616850853e-01,3.415766954421997e-01,-1.063856109976768e-02,2.160406671464443e-02,1.542630493640900e-01,1.093602403998375e-01,-4.541922509670258e-01,-3.777341172099113e-02,5.897032022476196e-01,-7.627902030944824e-01,9.005953073501587e-01,7.940345257520676e-02,1.377573162317276e-01,9.592123329639435e-02,9.120446443557739e-02,9.868855774402618e-02,5.793632008135319e-03,-9.942567348480225e-02,-1.751798242330551e-01,-1.242321357131004e-01,-3.173271939158440e-02,-2.921692728996277e-01},
	{-4.056460559368134e-01,2.173466086387634e-01,8.553598821163177e-02,-7.997060567140579e-02,-1.854533106088638e-01,2.998911961913109e-02,-1.481074839830399e-02,5.561098456382751e-01,-1.871893703937531e-01,-5.317731499671936e-01,-8.174481987953186e-01,9.921313822269440e-02,-4.702495876699686e-03,2.031766474246979e-01,3.371056616306305e-01,-1.164257451891899e-01,3.800577521324158e-01,-3.298715353012085e-01,3.430315256118774e-01,1.747314780950546e-01,-1.224773228168488e-01,1.557291746139526e-01,-3.356918394565582e-01,-1.226526200771332e-01,-2.209059447050095e-01,6.302092969417572e-02,4.004020690917969e-01,-3.427920341491699e-01,2.024083286523819e-01,-3.134244307875633e-02,8.545084297657013e-02,-4.347211718559265e-01,1.046923827379942e-02,-7.222583144903183e-02,4.273836314678192e-01},
	{-4.308778047561646e-02,-8.391609787940979e-02,2.276351004838943e-01,8.090094923973083e-01,5.229740738868713e-01,-3.390583097934723e-01,9.502032399177551e-01,-8.223254680633545e-01,2.622465416789055e-02,6.575336307287216e-02,4.635140895843506e-01,-2.970877662301064e-02,-2.633955180644989e-01,1.752726286649704e-01,-2.157320529222488e-01,-2.147174179553986e-01,1.711620390415192e-01,-2.480568736791611e-01,-5.161410570144653e-02,6.210353374481201e-01,-6.177780404686928e-02,1.555500626564026e-01,2.979416847229004e-01,3.632151708006859e-02,-2.132654786109924e-01,8.151204138994217e-02,-2.387124001979828e-01,3.035072050988674e-02,1.713988482952118e-01,-2.818034887313843e-01,3.304811716079712e-01,3.017867729067802e-02,6.376519203186035e-01,4.085410535335541e-01,3.045186102390289e-01},
	{3.090172708034515e-01,-1.214758455753326e-01,-6.688274443149567e-02,-7.034882307052612e-01,1.615487337112427e-01,1.012692302465439e-01,2.657047510147095e-01,-9.617649316787720e-01,1.887283027172089e-01,-5.541825294494629e-02,6.561651229858398e-01,3.486064374446869e-01,4.479765146970749e-02,8.506760597229004e-01,4.459326565265656e-01,6.979836821556091e-01,1.878232657909393e-01,4.196496307849884e-02,1.025273948907852e-01,5.926568508148193e-01,-1.499333083629608e-01,8.813660591840744e-02,-1.683437377214432e-01,-6.300966441631317e-02,-7.228762842714787e-04,-2.965973503887653e-02,3.580681085586548e-01,-5.187350511550903e-02,2.810155153274536e-01,9.910497069358826e-02,-6.046021729707718e-02,3.172192275524139e-01,-3.526205196976662e-02,7.851135730743408e-02,6.663435697555542e-02},
	{-9.254159778356552e-02,-8.989524841308594e-02,1.452771574258804e-01,-3.564985394477844e-01,2.577753961086273e-01,1.248995773494244e-02,6.821466684341431e-01,2.404416799545288e-01,8.120474219322205e-02,-3.954744637012482e-01,3.339856863021851e-02,3.813737034797668e-01,2.575988769531250e-01,3.472400009632111e-01,-4.928404465317726e-02,2.492712736129761e-01,1.339288800954819e-01,5.199015885591507e-02,-4.970082640647888e-02,-4.039300084114075e-01,-2.928703427314758e-01,-1.597669720649719e+00,-3.274097442626953e-01,4.161041080951691e-01,3.645903468132019e-01,-7.654877305030823e-01,8.241774886846542e-02,1.700008064508438e-01,1.520204246044159e-01,-1.572166532278061e-01,1.249687280505896e-02,-2.905336916446686e-01,-2.744702100753784e-01,2.146473713219166e-02,3.021572232246399e-01},
	{-5.274944752454758e-02,1.544680893421173e-01,-1.109376084059477e-02,-1.654930561780930e-01,-2.882683575153351e-01,-4.993003010749817e-01,1.962739042937756e-03,-6.245818138122559e-01,9.861984103918076e-02,-4.387538731098175e-01,-3.281982988119125e-02,-4.779454469680786e-01,2.195662260055542e-01,-8.218035101890564e-02,-1.782468408346176e-01,-6.455386281013489e-01,-1.141015291213989e-01,3.081757128238678e-01,-4.745547771453857e-01,-5.649101734161377e-01,9.324896335601807e-02,-2.926392480731010e-02,3.582147359848022e-01,1.474316581152380e-03,-4.759429022669792e-02,-6.243512406945229e-02,2.164887934923172e-01,-6.016145274043083e-02,1.345167160034180e-01,-5.236755013465881e-01,6.133939027786255e-01,6.306087225675583e-02,1.854346096515656e-01,-7.574331015348434e-02,-2.084994763135910e-01},
	{2.406154870986938e-01,-1.605358719825745e-01,-4.884355887770653e-02,3.984774947166443e-01,4.495873451232910e-01,2.650462687015533e-01,-4.026684910058975e-02,-9.117014706134796e-02,1.982537358999252e-01,-5.556696653366089e-02,1.408896297216415e-01,3.511208295822144e-01,-1.793531477451324e-01,-7.460494339466095e-02,-1.945099085569382e-01,4.074395596981049e-01,7.672361135482788e-01,-2.061927691102028e-02,-1.403136085718870e-02,-4.896520078182220e-01,3.448620140552521e-01,-4.159254580736160e-02,-1.571833342313766e-01,-1.837773025035858e-01,-3.371279537677765e-01,-4.645460546016693e-01,5.468938946723938e-01,6.117148399353027e-01,4.421457275748253e-02,-4.529868066310883e-01,-6.086926460266113e-01,-9.533520042896271e-02,-1.018036808818579e-02,-1.464318484067917e-01,7.160939276218414e-02},
	{2.629146575927734e-01,-2.705179750919342e-01,-9.104418009519577e-02,4.454119801521301e-01,-1.886541396379471e-01,3.009706139564514e-01,-2.823937833309174e-01,-4.262569546699524e-01,2.136945873498917e-01,4.580014199018478e-02,-1.747637987136841e-01,5.393570661544800e-02,2.097255438566208e-01,1.702433377504349e-01,5.475323796272278e-01,-6.802323460578918e-01,3.029115498065948e-01,1.748321652412415e-01,8.135986924171448e-01,-5.330041646957397e-01,-2.689274549484253e-01,2.334386855363846e-01,1.118236035108566e-01,-3.194057345390320e-01,-2.508485317230225e-01,-7.571703195571899e-01,9.087342023849487e-02,3.204343914985657e-01,6.917073577642441e-02,-1.472951918840408e-01,2.038985341787338e-01,-1.229598894715309e-01,-1.270933896303177e-01,-1.615884900093079e-01,-7.419506907463074e-01},
	{-1.998776346445084e-01,5.122052133083344e-02,-9.390687569975853e-03,-8.123519420623779e-01,-1.225249916315079e-01,4.426584020256996e-02,1.233340948820114e-01,-2.634538710117340e-01,-6.026648730039597e-02,9.903416782617569e-02,-7.735462784767151e-01,7.067393045872450e-03,-6.309620290994644e-02,7.707427740097046e-01,3.626235201954842e-02,-2.727916538715363e-01,1.496055424213409e-01,3.288595676422119e-01,-1.419013291597366e-01,-4.249665439128876e-01,2.456330955028534e-01,-1.796537637710571e-02,-1.927606314420700e-01,2.057327330112457e-01,-1.181515902280807e-01,-1.606642901897430e-01,1.017700359225273e-01,1.881340891122818e-01,-1.868456602096558e-01,2.067830264568329e-01,5.088030099868774e-01,1.916180849075317e-01,1.325235664844513e-01,-1.917217522859573e-01,-1.971886605024338e-01},
	{1.498063504695892e-01,-1.034805551171303e-03,-4.332472011446953e-02,2.363886386156082e-01,-5.695202201604843e-02,-1.717197746038437e-01,-4.134181439876556e-01,1.459217965602875e-01,5.385565757751465e-02,-1.313217636197805e-02,-1.706618666648865e-01,-6.015179753303528e-01,-2.236680313944817e-02,4.008524417877197e-01,1.303942322731018e+00,-3.795015811920166e-01,-5.555952712893486e-02,-5.921315774321556e-02,7.102267742156982e-01,7.408766150474548e-01,3.700014352798462e-01,4.028430581092834e-02,-1.605223566293716e-01,1.119751408696175e-01,-9.794478118419647e-02,-4.117868542671204e-01,-9.688740223646164e-02,-7.063234597444534e-02,-2.619456648826599e-01,1.384909003973007e-01,1.713036447763443e-01,-5.045163631439209e-02,5.256651639938354e-01,3.127476945519447e-02,1.942153573036194e-01},
	{-2.993629276752472e-01,2.015755884349346e-02,3.176333010196686e-01,-1.691289842128754e-01,6.789190769195557e-01,5.160534381866455e-01,5.282176136970520e-01,-2.164075970649719e-01,-3.935921192169189e-02,-3.810729458928108e-02,4.531179666519165e-01,7.033711671829224e-02,8.850587159395218e-02,-4.634037613868713e-01,6.662790179252625e-01,2.167434841394424e-01,1.133371666073799e-01,-1.510082185268402e-01,3.551294207572937e-01,8.804072439670563e-02,-4.944849610328674e-01,-2.055989503860474e-01,1.036275774240494e-01,1.079081371426582e-01,3.659897446632385e-01,3.596608638763428e-01,1.592506617307663e-01,1.979192048311234e-01,3.978973254561424e-02,-1.802166998386383e-01,-1.677075624465942e-01,2.985642105340958e-02,1.008046150207520e+00,-3.147687315940857e-01,-6.467105746269226e-01},
	{-3.493527472019196e-01,6.825135555118322e-03,1.633482575416565e-01,-3.081523180007935e-01,2.189735621213913e-01,-1.647512316703796e-01,1.636098027229309e+00,-1.870527677237988e-02,-2.880534715950489e-02,2.121536135673523e-01,3.631685376167297e-01,-7.074721157550812e-02,-2.936045825481415e-01,5.007011815905571e-02,-1.021606698632240e-01,-9.890365600585938e-02,-6.346575915813446e-02,-2.471234053373337e-01,2.307263910770416e-01,6.248601675033569e-01,-8.511244654655457e-01,-1.311424851417542e+00,2.259152978658676e-01,-6.162671372294426e-02,1.903868764638901e-01,1.050066590309143e+00,-4.028512910008430e-02,-8.973182737827301e-02,-1.084033846855164e-01,4.787080883979797e-01,-2.671854794025421e-01,-1.275415718555450e-01,6.204229593276978e-01,8.959682285785675e-02,-5.435835942625999e-02},
	{3.187967538833618e-01,-3.880219459533691e-01,6.061105430126190e-02,-3.206814527511597e-01,1.392685249447823e-02,2.670910060405731e-01,-6.805337667465210e-01,-4.783561229705811e-01,-2.662935256958008e-01,-1.261064708232880e-01,6.237826347351074e-01,5.660510659217834e-01,1.182105466723442e-01,3.563589453697205e-01,1.381800770759583e-01,-1.173212528228760e-01,4.782662689685822e-01,-4.003730118274689e-01,-2.276653498411179e-01,1.554402470588684e+00,-1.689192838966846e-02,5.473182797431946e-01,2.564786970615387e-01,-5.773005485534668e-01,2.168600410223007e-01,1.206549927592278e-01,-4.106896519660950e-01,3.371558487415314e-01,5.332838892936707e-01,3.393987715244293e-01,-2.414750009775162e-01,-9.002846479415894e-02,-1.034804582595825e-01,-3.883280456066132e-01,-9.057569503784180e-02},
	{-1.036553550511599e-02,-5.660670995712280e-01,-9.897612035274506e-04,1.349107772111893e-01,-2.776122689247131e-01,1.182415932416916e-01,6.223903223872185e-02,1.278906315565109e-01,-6.612198352813721e-01,5.107212066650391e-01,-1.233421117067337e-01,5.389626696705818e-02,8.495953083038330e-01,2.892473638057709e-01,-5.037825182080269e-02,1.510578952729702e-02,-1.790317893028259e-01,1.922139972448349e-01,5.575199052691460e-02,-1.239179447293282e-01,-5.586910247802734e-02,-2.787071280181408e-02,7.796321064233780e-02,3.244030773639679e-01,1.377450227737427e-01,-5.700560212135315e-01,-3.198152482509613e-01,7.424331903457642e-01,5.630369111895561e-02,3.312217593193054e-01,1.604153215885162e-01,3.795171976089478e-01,4.703188315033913e-02,3.989184498786926e-01,-1.779482662677765e-01},
	{-6.796540617942810e-01,-2.491417676210403e-01,2.251398563385010e-02,2.732278108596802e-01,1.426227837800980e-01,2.202312089502811e-02,-2.566770017147064e-01,-3.807052373886108e-01,-2.766863107681274e-01,-2.847978100180626e-02,-1.100921750068665e+00,2.803903818130493e-01,5.853646993637085e-01,-1.697297245264053e-01,1.109312921762466e-01,7.829999327659607e-01,8.935388177633286e-02,5.386343598365784e-01,-2.874676883220673e-01,6.625185906887054e-02,-1.420540809631348e-01,8.940573781728745e-02,-3.886599093675613e-02,-5.917221307754517e-01,-5.402802824974060e-01,-2.486850321292877e-02,-5.504977107048035e-01,1.064649149775505e-01,2.840600013732910e-01,-1.334048360586166e-01,3.539180755615234e-01,-1.325346082448959e-01,-1.605504006147385e-01,3.237994611263275e-01,6.041721105575562e-01},
	{5.826260149478912e-02,-3.112610280513763e-01,-6.003172397613525e-01,3.954468369483948e-01,-4.672103747725487e-02,-3.450344204902649e-01,4.620381891727448e-01,2.876622378826141e-01,2.073400616645813e-01,-1.611614674329758e-01,9.952580928802490e-02,4.077050387859344e-01,-1.361442208290100e-01,-3.220659494400024e-01,-3.330493867397308e-01,5.323315262794495e-01,-6.676739454269409e-01,-5.666813254356384e-01,-4.265343248844147e-01,2.658194303512573e-01,-1.345351245254278e-02,-1.229535937309265e+00,1.409368515014648e-01,2.020407468080521e-02,-4.812504053115845e-01,1.741205453872681e-01,2.182993441820145e-01,-2.277988046407700e-01,-4.555149376392365e-01,-1.031404826790094e-02,5.263438224792480e-01,-5.062366649508476e-02,7.322435081005096e-02,3.436264395713806e-02,6.888667941093445e-01},
	{-2.970925271511078e-01,-1.565704643726349e-01,2.323575876653194e-02,1.025055170059204e+00,-3.194541931152344e-01,6.815382242202759e-01,3.503015637397766e-01,1.958749443292618e-01,-1.675172708928585e-02,-5.039003863930702e-02,4.067697823047638e-01,1.044249460101128e-01,1.130172088742256e-01,-1.838233768939972e-01,2.038692310452461e-02,1.218107864260674e-01,-7.505696266889572e-02,1.732201874256134e-01,1.318396069109440e-02,4.590806961059570e-01,-1.343954056501389e-01,-1.216194778680801e-02,-3.689855635166168e-01,2.766157090663910e-01,1.525918543338776e-01,2.643344737589359e-02,-9.392078220844269e-02,-5.975988134741783e-02,6.500150561332703e-01,-7.029900550842285e-01,-1.558904349803925e-01,-8.850385993719101e-02,-6.326980590820312e-01,1.098799332976341e-01,3.220447897911072e-01},
	{1.868543028831482e-01,2.124702036380768e-01,-2.153831422328949e-01,-2.716623544692993e-01,2.982912957668304e-01,4.803145676851273e-02,4.448951184749603e-01,-1.684301495552063e-01,-9.001197665929794e-02,-1.792358309030533e-01,8.137892186641693e-02,1.292722374200821e-01,4.734225571155548e-01,-5.848493799567223e-02,-4.177136719226837e-02,-4.405898228287697e-02,-8.084170818328857e-01,-8.447158336639404e-01,-8.277377486228943e-01,8.464516699314117e-02,-3.355958461761475e-01,2.145092636346817e-01,-1.793174818158150e-02,-2.954944968223572e-01,-2.111752629280090e-01,2.394846826791763e-01,-3.092213273048401e-01,9.516594000160694e-03,3.373726084828377e-02,-1.527017056941986e-01,1.594310849905014e-01,1.875183135271072e-01,-6.209671497344971e-01,3.079365491867065e-01,1.703217327594757e-01}};
float weights_tr2_1_1[35]={7.652722597122192e-01,7.881861180067062e-02,-1.080560833215714e-01,-3.511773347854614e-01,-4.287896752357483e-01,4.669953882694244e-02,-3.395197913050652e-02,-1.046055257320404e-01,1.951540410518646e-01,3.184537589550018e-01,-4.464902579784393e-01,-8.890973776578903e-02,-9.238170832395554e-02,-4.319944977760315e-01,-1.808135211467743e-01,1.178778931498528e-01,-2.807700634002686e-01,6.765955090522766e-01,2.858333885669708e-01,3.148556649684906e-01,-3.512367010116577e-01,-9.202102571725845e-02,3.278225660324097e-01,-1.319727301597595e-01,8.227596431970596e-02,-2.736081480979919e-01,6.027317419648170e-02,1.569353789091110e-01,-6.010959744453430e-01,-1.452544480562210e-01,4.179725944995880e-01,2.122154086828232e-01,-2.220603227615356e-01,4.477797150611877e-01,-1.381754279136658e-01};
