float weights_bn_0_2[9]={4.004739820957184e-01,3.004276752471924e-01,1.200806021690369e+00,3.891737759113312e-02,1.163970470428467e+00,9.835797548294067e-01,8.236689567565918e-01,5.392741560935974e-01,8.180400133132935e-01};
float weights_bn_1_2[9]={-1.843167468905449e-02,-1.465923804789782e-02,2.926807105541229e-01,3.162242844700813e-02,9.268371015787125e-02,-5.360944569110870e-02,1.900320313870907e-02,3.099369108676910e-01,9.128414839506149e-02};
float weights_bn_2_2[9]={-4.068698883056641e+00,7.985739898681641e+01,2.410038146972656e+02,1.187720417976379e+00,1.504028141498566e-01,1.797133311629295e-02,1.957061588764191e-01,3.113632798194885e-01,1.235663294792175e-01};
float weights_bn_3_2[9]={5.880996875000000e+04,5.123732421875000e+04,9.198282812500000e+04,3.690391540527344e+01,9.935650229454041e-02,9.926084429025650e-02,4.062590748071671e-02,1.327762939035892e-02,8.422822505235672e-02};
float weights_tr1_0_2[9][49]={
	{4.984068274497986e-01,6.528466939926147e-01,-2.977132052183151e-02,-2.712142467498779e-01,-3.468514680862427e-01,1.323556900024414e-01,7.121963798999786e-02,-2.878761105239391e-02,5.158420205116272e-01,2.558799833059311e-02,4.591746032238007e-01,-5.010588467121124e-02,3.462986350059509e-01,-9.049582481384277e-02,-8.266655206680298e-01,4.882207214832306e-01,-1.738860458135605e-01,3.293748199939728e-02,2.555143237113953e-01,-3.693588450551033e-02,2.703903242945671e-02,-7.312418892979622e-03,1.311045289039612e-01,-2.654868364334106e-01,-9.955015033483505e-02,-7.913526892662048e-02,4.297024011611938e-01,8.219331502914429e-03,1.622757166624069e-01,6.241416558623314e-02,-1.422773152589798e-01,3.950102254748344e-03,3.477173149585724e-01,1.147097051143646e-01,-5.992805585265160e-02,-1.997377350926399e-02,-6.548842042684555e-02,-1.328746676445007e-01,4.071125760674477e-03,-1.643642187118530e-01,2.732403576374054e-03,1.152424141764641e-02,-4.649402946233749e-02,-1.028661057353020e-01,7.160844802856445e-01,3.331935405731201e-01,-3.078595548868179e-02,3.149458020925522e-02,2.870695590972900e-01},
	{-1.120950281620026e-01,-1.208759620785713e-01,-5.858690477907658e-03,-4.073031544685364e-01,-7.713200896978378e-02,-1.235373616218567e-01,-1.597717776894569e-02,-6.536962930113077e-03,-2.206356972455978e-01,-1.224715635180473e-01,-1.649614572525024e-01,-2.404574118554592e-02,-7.932893931865692e-02,1.511787902563810e-02,2.086883634328842e-01,-1.724931597709656e-01,-1.452630162239075e-01,7.040047645568848e-02,1.697068959474564e-01,-8.184579759836197e-02,2.194944582879543e-02,-9.127512574195862e-03,1.750532165169716e-02,-2.381600141525269e-01,2.260605432093143e-02,8.817689865827560e-02,-7.711175084114075e-01,-2.255222201347351e-02,1.308989375829697e-01,2.706808447837830e-01,-7.147052884101868e-01,-1.298480927944183e-01,-2.058426141738892e-01,1.151225119829178e-01,2.980927228927612e-01,-1.208671629428864e-01,-1.489612739533186e-02,9.779084473848343e-02,-1.400250196456909e-01,-2.655765414237976e-01,4.104544222354889e-02,4.852715879678726e-02,-4.945472255349159e-02,-1.666842252016068e-01,-7.375438213348389e-01,1.055759415030479e-01,1.234836056828499e-01,-9.229726344347000e-02,7.223699241876602e-02},
	{5.648320075124502e-03,-3.408037722110748e-01,9.757197499275208e-01,-3.576653003692627e-01,3.275650739669800e-01,-6.479021310806274e-01,-1.051301598548889e+00,2.848685979843140e-01,2.063353545963764e-02,9.664261341094971e-02,-8.259808272123337e-02,4.629026949405670e-01,-1.028000861406326e-01,-8.146371245384216e-01,6.175948306918144e-02,-9.264109283685684e-02,-3.504960238933563e-01,1.118784904479980e+00,-4.464072287082672e-01,5.422770977020264e-01,8.955718874931335e-01,-5.500576496124268e-01,4.661072790622711e-01,-2.971542812883854e-02,-3.756658732891083e-01,-5.277118086814880e-01,1.823475658893585e-01,2.751270867884159e-02,-3.313264846801758e-01,-2.241471111774445e-01,-3.079628013074398e-02,2.003590315580368e-01,-3.375761443749070e-04,6.724151372909546e-01,7.645960897207260e-02,1.060928702354431e+00,4.529928416013718e-02,-1.196840628981590e-01,3.823988884687424e-02,-1.215501688420773e-02,4.204310942441225e-03,4.234746098518372e-01,-3.304093182086945e-01,4.689798653125763e-01,2.126457393169403e-01,6.085036993026733e-01,6.333261728286743e-01,1.990717798471451e-01,1.582401618361473e-02},
	{1.120942533016205e-01,2.339479699730873e-02,-4.420247972011566e-01,6.270921230316162e-02,1.007421165704727e-01,-2.367045730352402e-01,1.266601262614131e-03,1.974048614501953e-01,-3.664163053035736e-01,-3.650818169116974e-01,5.296917557716370e-01,-3.319172188639641e-02,1.458214074373245e-01,-3.041436709463596e-02,-3.486464172601700e-02,-4.959133267402649e-02,-4.247280359268188e-01,2.916917502880096e-01,5.436587706208229e-02,5.538543686270714e-02,7.430988550186157e-02,-6.105969473719597e-02,4.515595734119415e-02,8.370757848024368e-02,2.189828157424927e-01,2.468446046113968e-01,-1.920949071645737e-01,-1.296995133161545e-01,-9.156754612922668e-02,6.672072410583496e-02,2.483853846788406e-01,-2.129024453461170e-02,1.931934989988804e-02,-5.187909677624702e-02,1.819768995046616e-01,-2.305667102336884e-01,-8.744942396879196e-02,-1.862305030226707e-02,-8.611943125724792e-01,2.756076864898205e-02,-6.461936980485916e-02,-1.179669946432114e-01,4.496544599533081e-01,1.931687258183956e-02,-4.395079240202904e-02,1.088468823581934e-02,4.544400572776794e-01,2.555076219141483e-02,6.389309763908386e-01},
	{1.269272416830063e-01,-1.778701096773148e-01,-1.408292502164841e-01,2.518156170845032e-01,-7.219541668891907e-01,3.892963528633118e-01,3.865554928779602e-01,-6.920498609542847e-02,1.348774582147598e-01,-6.694886684417725e-01,-3.745011985301971e-01,8.365473896265030e-02,1.606281660497189e-02,6.440473794937134e-01,-9.505933523178101e-02,5.156958103179932e-01,7.735558599233627e-02,-6.969239562749863e-02,3.197061717510223e-01,-2.761377990245819e-01,-2.976919114589691e-01,4.099056720733643e-01,-2.570151984691620e-01,6.887400150299072e-02,5.620827078819275e-01,1.329114194959402e-02,-3.009031713008881e-01,4.645167291164398e-01,4.990347921848297e-01,-2.267271131277084e-01,6.001664400100708e-01,-1.576497256755829e-01,-1.067637503147125e-01,5.089230537414551e-01,4.361338019371033e-01,-2.694488763809204e-01,3.863789141178131e-02,-2.174540236592293e-02,3.029064536094666e-01,-1.349474117159843e-02,2.646353542804718e-01,3.119016587734222e-01,8.744787573814392e-01,-6.083240509033203e-01,1.028912514448166e-01,-1.844626963138580e-01,-2.873984873294830e-01,-1.261679083108902e-01,-1.712939329445362e-02},
	{-2.198523879051208e-01,-8.920150995254517e-02,-2.552997693419456e-02,-1.475358903408051e-01,-4.373125433921814e-01,-1.088876277208328e-01,2.842595279216766e-01,-6.060990691184998e-01,4.899294972419739e-01,-5.296849012374878e-01,-7.080277204513550e-01,2.824513800442219e-02,2.079666554927826e-01,2.632183134555817e-01,-6.839866936206818e-02,4.709443449974060e-01,3.894648551940918e-01,2.646544761955738e-02,1.802168786525726e-01,-4.317581653594971e-01,-6.305139660835266e-01,9.179407358169556e-02,-2.418609149754047e-02,3.742159307003021e-01,2.105927616357803e-01,-2.910909354686737e-01,-7.756069302558899e-02,3.945757150650024e-01,3.086097240447998e-01,-1.517314612865448e-01,3.381585180759430e-01,7.546038031578064e-01,1.213816404342651e-01,2.161920964717865e-01,4.373272657394409e-01,-8.151442557573318e-02,-4.337122142314911e-01,2.199079543352127e-01,5.295427441596985e-01,3.997112438082695e-02,2.004761397838593e-01,1.938574910163879e-01,6.744497418403625e-01,-6.163859963417053e-01,3.533557653427124e-01,-2.453817129135132e-01,-3.786514401435852e-01,-6.453242897987366e-02,-2.040597051382065e-01},
	{-1.641409695148468e-01,-2.619065716862679e-02,3.789051771163940e-01,-6.116821244359016e-02,-2.599084973335266e-01,-6.082789897918701e-01,-6.142796203494072e-02,-2.250080555677414e-01,1.164435297250748e-01,2.668652236461639e-01,-2.220278680324554e-01,-1.546179652214050e-01,-2.825426757335663e-01,3.331037759780884e-01,-9.394329786300659e-02,3.732535243034363e-01,-3.103861212730408e-01,5.560981109738350e-02,6.338253617286682e-02,2.148890197277069e-01,-2.036150395870209e-01,4.609174430370331e-01,-2.873000502586365e-01,4.411899149417877e-01,-4.610606133937836e-01,-4.186983704566956e-01,8.854702860116959e-02,3.176079094409943e-01,2.156331390142441e-02,-4.460096061229706e-01,6.927213817834854e-02,7.305566072463989e-01,-1.408194452524185e-01,-9.117094427347183e-02,2.024973034858704e-01,7.271777093410492e-02,5.110769271850586e-01,-2.561005577445030e-02,6.678500026464462e-02,7.160795927047729e-01,-3.937831521034241e-01,-5.509661138057709e-02,-2.285696417093277e-01,-3.085653483867645e-02,-8.770442008972168e-02,1.148498505353928e-01,-4.310503304004669e-01,5.732748508453369e-01,2.182725444436073e-02},
	{-1.485774517059326e-01,-2.691107392311096e-01,1.200722455978394e-01,7.671286910772324e-02,-6.752809137105942e-02,1.809723973274231e-01,-1.585759371519089e-01,3.860833644866943e-01,1.694926619529724e-01,-3.515533208847046e-01,-2.668278515338898e-01,6.137455701828003e-01,-3.155939653515816e-02,-2.098183929920197e-01,-2.746333181858063e-01,-1.262926608324051e-01,3.868737220764160e-01,-1.120755001902580e-01,-3.915184736251831e-01,4.191775023937225e-01,1.442661583423615e-01,2.217261791229248e-01,4.794378578662872e-01,-1.020907610654831e-01,-3.158120810985565e-02,-1.289157569408417e-01,8.178545162081718e-03,-8.702034503221512e-02,-3.085290081799030e-02,-6.959228776395321e-03,-2.789004743099213e-01,-5.853520706295967e-02,4.408859312534332e-01,-6.830573081970215e-02,3.390935435891151e-02,1.824595965445042e-02,-1.398132890462875e-01,-3.809004724025726e-01,3.025361895561218e-01,-3.893837630748749e-01,8.044499754905701e-01,4.139447808265686e-01,-1.277858316898346e-01,-2.652562409639359e-02,2.419510334730148e-01,-4.288263916969299e-01,6.856232881546021e-02,-3.455680981278419e-02,2.893267571926117e-01},
	{5.282981395721436e-01,-2.310949862003326e-01,-1.644510179758072e-01,5.542601943016052e-01,-1.378574967384338e-01,1.819320023059845e-01,1.688273549079895e-01,-2.927576899528503e-01,3.761487007141113e-01,1.926041021943092e-02,-2.547741234302521e-01,-1.558526307344437e-01,-4.576735794544220e-01,3.424523770809174e-02,-3.984777331352234e-01,-1.058812066912651e-02,5.956801176071167e-01,1.413156241178513e-01,3.003141880035400e-01,-5.646188184618950e-02,-2.025788873434067e-01,-4.177803918719292e-02,3.084767162799835e-01,-9.362879395484924e-02,-9.620342403650284e-02,6.222635507583618e-01,-1.440533250570297e-01,-4.756876528263092e-01,3.587998747825623e-01,9.097252041101456e-02,-2.140659838914871e-01,2.523851767182350e-02,2.796528935432434e-01,-9.580046683549881e-02,5.519841909408569e-01,-2.113219648599625e-01,-1.201890036463737e-01,-3.736195862293243e-01,2.455432340502739e-02,-5.000047087669373e-01,1.190710738301277e-01,-4.128425717353821e-01,1.897089481353760e-01,1.730742305517197e-01,-2.356516122817993e-01,1.510522607713938e-02,-4.292651116847992e-01,-5.745161175727844e-01,-3.770533204078674e-01}};
float weights_tr1_1_2[49]={-9.702793322503567e-03,-2.465730905532837e-01,5.914001464843750e-01,-2.229964584112167e-01,3.287786245346069e-01,-1.956332921981812e-01,1.982228755950928e-01,9.056850522756577e-02,1.414396166801453e-01,3.492933511734009e-01,-2.315905988216400e-01,8.352923393249512e-02,-2.810854613780975e-01,3.103758394718170e-01,7.740098237991333e-02,1.024949550628662e-01,9.620833396911621e-02,1.966207027435303e-01,4.407379627227783e-01,-6.406081467866898e-02,5.441998317837715e-02,4.321611523628235e-01,4.471477586776018e-03,-7.883487939834595e-01,-1.320986449718475e-01,-4.529291689395905e-01,-8.204245567321777e-02,-3.621858358383179e-02,4.438654780387878e-01,-5.973432585597038e-02,-3.094785809516907e-01,2.701942920684814e-01,1.325669586658478e-01,2.161316722631454e-01,-8.025996387004852e-02,2.375984340906143e-01,2.034359239041805e-02,-2.795184552669525e-01,8.437945507466793e-03,-1.462385356426239e-01,-2.905282080173492e-01,-2.619161903858185e-01,-1.772707104682922e-01,3.700417876243591e-01,-5.230073332786560e-01,-6.183892488479614e-01,-4.608645439147949e-01,-1.016227677464485e-01,-4.883858859539032e-01};
float weights_tr2_0_2[49][35]={
	{7.623555511236191e-02,1.722441911697388e-01,-2.178949713706970e-01,6.322719156742096e-02,1.811330169439316e-01,1.979323476552963e-02,1.837477535009384e-01,-4.754416048526764e-01,-1.512794047594070e-01,-3.922837227582932e-02,2.237488478422165e-01,-3.619096875190735e-01,-4.901247322559357e-01,-5.706235766410828e-01,-2.569887787103653e-03,6.274839490652084e-02,2.692227065563202e-02,-2.576135694980621e-01,-4.052181541919708e-01,3.249937295913696e-01,-2.029737830162048e-02,3.495410084724426e-02,-1.785973906517029e-01,-2.671428024768829e-01,-5.289814621210098e-02,-3.128486871719360e-02,-3.779025971889496e-01,1.342190206050873e-01,-1.322802007198334e-01,-7.003547549247742e-01,4.368476867675781e-01,-3.948842287063599e-01,-6.364904344081879e-02,-7.026907056570053e-02,1.352953314781189e-01},
	{-1.394632738083601e-03,1.929634213447571e-01,4.612387157976627e-03,7.988847047090530e-02,1.164696067571640e-01,1.564910709857941e-01,1.764528304338455e-01,3.797065019607544e-01,-3.478544950485229e-01,-3.779180347919464e-01,-1.277502924203873e-01,1.339097023010254e-01,2.576339542865753e-01,-1.335635036230087e-01,-5.161809176206589e-02,-2.178605049848557e-01,7.947947084903717e-02,-2.400944679975510e-01,-3.024861775338650e-02,9.041985869407654e-02,2.600910142064095e-02,4.715040326118469e-02,-8.766010403633118e-02,7.395655382424593e-03,-3.800581442192197e-03,7.735381126403809e-01,-5.495838522911072e-01,-3.138355612754822e-01,-1.599926054477692e-01,-1.652314364910126e-01,-3.244900107383728e-01,2.006046772003174e-01,-1.556060016155243e-01,-6.299109458923340e-01,-1.147798821330070e-01},
	{-5.476197600364685e-01,-1.305118650197983e-01,9.482591152191162e-01,-3.210749626159668e-01,-2.894425988197327e-01,1.117854565382004e-01,-6.235709786415100e-01,-4.082219302654266e-02,8.269646018743515e-02,3.911432921886444e-01,-4.966484308242798e-01,-3.345559239387512e-01,-2.491839230060577e-02,-2.220326513051987e-01,-1.087148338556290e-01,5.958817005157471e-01,2.731356918811798e-01,3.107452392578125e-01,-1.248883679509163e-01,4.780283272266388e-01,5.230972915887833e-02,8.382118940353394e-01,-4.269779026508331e-01,1.134511455893517e-01,6.252822279930115e-01,2.942358851432800e-01,-1.422193087637424e-02,-1.828437745571136e-01,-1.967602372169495e-01,2.606275975704193e-01,1.055554226040840e-01,-1.189798787236214e-01,2.710469365119934e-01,-8.012501895427704e-02,8.091025799512863e-02},
	{1.565203964710236e-01,-7.581657916307449e-02,2.959742583334446e-02,3.855735436081886e-02,-1.333941668272018e-01,2.054431140422821e-01,4.517405331134796e-01,1.935924291610718e-01,1.936160624027252e-01,3.140757381916046e-01,1.139413267374039e-01,-5.602304935455322e-01,6.639063954353333e-01,-6.923432946205139e-01,1.819856911897659e-01,1.405602991580963e-01,-4.389012977480888e-02,7.350602746009827e-02,-1.786601096391678e-01,-7.328945398330688e-02,3.963329493999481e-01,-4.880752414464951e-02,-1.122551858425140e-01,3.622711598873138e-01,-3.770684590563178e-03,3.625608682632446e-01,4.249117076396942e-01,1.316972728818655e-02,-8.021508343517780e-03,8.447235822677612e-01,2.162757068872452e-01,7.557932287454605e-02,-1.839182376861572e-01,-2.399866133928299e-01,3.226707875728607e-01},
	{1.439199149608612e-01,-7.230859715491533e-03,-5.620108544826508e-02,-1.340320408344269e-01,-2.436075210571289e-01,1.858536452054977e-01,-6.169218942523003e-02,1.116265177726746e+00,-1.147416159510612e-01,1.445644646883011e-01,-1.186429783701897e-01,-7.322384715080261e-01,-3.660042881965637e-01,7.856345921754837e-02,-1.668383330106735e-01,-1.505794823169708e-01,5.113078281283379e-02,6.680139154195786e-02,5.438191443681717e-02,3.201930597424507e-02,6.325247287750244e-01,-1.037151739001274e-01,5.190296471118927e-02,-2.238001674413681e-01,-9.178531914949417e-02,-1.639034897089005e-01,-4.008478224277496e-01,-1.539439707994461e-02,4.772559925913811e-02,5.199439451098442e-02,-1.896842867136002e-01,-1.801448315382004e-01,-3.375749588012695e-01,2.970790117979050e-02,-6.026320457458496e-01},
	{7.378271222114563e-02,1.978851258754730e-01,3.602118417620659e-02,1.833747029304504e-01,-3.596568852663040e-02,1.283289939165115e-01,1.145027995109558e+00,-4.484994802623987e-03,-1.753250136971474e-02,1.373597085475922e-01,1.230509057641029e-01,2.224646061658859e-01,-4.671377316117287e-02,-1.025493890047073e-01,-2.263823002576828e-01,-4.674122333526611e-01,9.422859549522400e-02,1.019490137696266e-01,1.681632995605469e-01,-2.547445297241211e-01,-5.202209353446960e-01,-6.259261369705200e-01,4.223822653293610e-01,-6.099963784217834e-01,5.592115595936775e-02,-5.843126177787781e-01,-3.526727259159088e-01,3.198243305087090e-02,-1.615989804267883e-01,-1.670834571123123e-01,7.265903055667877e-02,3.261529803276062e-01,3.608157932758331e-01,-2.466854825615883e-02,2.484275847673416e-01},
	{-5.751116275787354e-01,1.875536888837814e-02,1.261992901563644e-01,-8.957893587648869e-03,-2.370640486478806e-01,7.379744201898575e-02,-1.066929459571838e+00,1.972062587738037e-01,-2.102268487215042e-02,4.084883928298950e-01,3.920707404613495e-01,-4.724126458168030e-01,-1.278305053710938e-01,1.535060852766037e-01,4.783836379647255e-02,2.479331791400909e-01,-2.689014561474323e-02,2.391718178987503e-01,-7.899836450815201e-02,-3.986852169036865e-01,-4.613762199878693e-01,-3.820322826504707e-02,-2.236035838723183e-02,-7.085140049457550e-02,-6.022597551345825e-01,1.457847058773041e-01,-4.569998476654291e-03,-8.006810210645199e-03,-3.875896334648132e-01,-5.619821324944496e-02,-5.129953846335411e-03,-4.640332423150539e-03,5.424515604972839e-01,-6.056483387947083e-01,1.446644365787506e-01},
	{9.338025748729706e-02,1.329011935740709e-02,3.437204360961914e-01,3.198658525943756e-01,2.228811085224152e-01,3.924599885940552e-01,-8.027216792106628e-02,3.653491735458374e-01,6.246127560734749e-02,-1.936212182044983e-01,-2.133701890707016e-01,-8.347663879394531e-01,4.627737030386925e-02,1.183293834328651e-01,-7.325435280799866e-01,2.127956300973892e-01,-1.294768881052732e-02,9.112465381622314e-02,-2.582006156444550e-01,-7.055484652519226e-01,5.218045711517334e-01,2.584025729447603e-03,-4.111788421869278e-02,-1.259500533342361e-01,2.494075000286102e-01,2.171380445361137e-02,2.411165460944176e-02,7.799506187438965e-02,2.437424957752228e-01,-2.037816494703293e-01,7.928910106420517e-02,-9.576088935136795e-02,-6.071201562881470e-01,2.054206281900406e-01,2.834320962429047e-01},
	{9.955000132322311e-02,-2.467158138751984e-01,3.268919652327895e-03,1.092622056603432e-01,2.157913893461227e-01,-1.627400219440460e-01,-8.463861793279648e-02,2.164489179849625e-01,-4.567683637142181e-01,-6.187502145767212e-01,1.408809423446655e-01,-1.187700182199478e-01,-4.381474852561951e-01,-1.831844002008438e-01,3.439953923225403e-01,4.519190788269043e-01,1.044756248593330e-01,1.840226948261261e-01,9.972919523715973e-02,-1.849614232778549e-01,-1.308055967092514e-01,-7.719651609659195e-02,1.911765784025192e-01,3.895189166069031e-01,2.721846662461758e-02,1.745898127555847e-01,4.685907959938049e-01,1.382194757461548e-01,-1.498658508062363e-01,3.374094143509865e-02,1.865577250719070e-01,-6.009529232978821e-01,-1.499359309673309e-01,-2.706732451915741e-01,-3.861196339130402e-02},
	{-4.169740080833435e-01,1.224702969193459e-02,-2.979910969734192e-01,-3.566936254501343e-01,9.991727769374847e-02,-9.506760835647583e-01,-4.029824137687683e-01,7.644874602556229e-02,-2.645696513354778e-04,1.016058772802353e-01,3.209523558616638e-01,3.439289927482605e-01,-2.616525590419769e-01,2.426408082246780e-01,-9.375594854354858e-01,-3.079848885536194e-01,-8.203792572021484e-02,4.320520535111427e-02,5.181770026683807e-02,9.238030910491943e-01,5.756705999374390e-01,6.563756465911865e-01,-2.102812528610229e-01,3.260275721549988e-02,-2.864666879177094e-01,-3.605472743511200e-01,6.990033388137817e-02,-1.022413447499275e-01,-9.548427909612656e-02,1.851271986961365e-01,-2.375059127807617e-01,-2.100432068109512e-01,1.924339532852173e-01,8.880127221345901e-02,1.916918605566025e-01},
	{1.311055421829224e-01,5.359785556793213e-01,-2.174924127757549e-02,2.260365635156631e-01,-2.960962615907192e-02,-5.629381537437439e-01,-1.820518225431442e-01,-2.615331113338470e-01,1.505181491374969e-01,3.869774639606476e-01,3.233133628964424e-02,-2.405028492212296e-01,4.072000980377197e-01,8.216583728790283e-02,2.300260663032532e-01,-6.620784848928452e-02,2.953531146049500e-01,2.569406628608704e-01,2.694497704505920e-01,-2.011702954769135e-01,1.399566680192947e-01,6.803043186664581e-02,-5.034445971250534e-02,-3.935560882091522e-01,1.601079255342484e-01,-9.226150065660477e-02,-6.141054034233093e-01,1.786511093378067e-01,-4.580590501427650e-02,-4.216936826705933e-01,3.742703199386597e-01,7.111848592758179e-01,-6.026950106024742e-02,-8.170888423919678e-01,-5.210968106985092e-02},
	{-3.125660419464111e-01,6.068532913923264e-02,1.000588163733482e-01,-3.190748393535614e-01,-1.911174207925797e-01,-2.914828062057495e-02,2.250684946775436e-01,4.484656825661659e-02,5.859243869781494e-02,1.738722920417786e-01,-5.892277956008911e-01,1.367324590682983e-01,-6.911019980907440e-02,-2.570049166679382e-01,-4.843686148524284e-02,2.219741940498352e-01,-7.611793875694275e-01,-6.378125548362732e-01,-2.339753061532974e-01,-4.703885912895203e-01,-1.774206459522247e-01,-5.864411965012550e-02,1.341791003942490e-01,1.852800697088242e-02,2.195213139057159e-01,6.559126824140549e-02,-1.544330120086670e-01,4.642174020409584e-02,4.952795803546906e-01,9.700374305248260e-02,-5.442479848861694e-01,2.459918148815632e-02,3.784119710326195e-02,-3.455793261528015e-01,1.425650864839554e-01},
	{6.839618831872940e-02,2.531615793704987e-01,6.873951107263565e-02,-1.184463407844305e-02,-1.942756026983261e-02,-3.596458435058594e-01,-3.294122517108917e-01,5.652011036872864e-01,1.725222766399384e-01,-3.802821040153503e-01,3.498377799987793e-01,3.990847766399384e-01,7.863294333219528e-02,-2.767138779163361e-01,1.445914506912231e-01,6.577726453542709e-02,1.102355718612671e-01,7.596763968467712e-02,1.083920672535896e-01,1.186942532658577e-01,-3.826469182968140e-02,-9.110917150974274e-02,-1.026110872626305e-01,2.092500478029251e-01,-2.272689789533615e-01,2.942678630352020e-01,2.770332619547844e-02,-4.028073549270630e-01,2.901797592639923e-01,-4.246128201484680e-01,-4.763841927051544e-01,2.467900216579437e-01,3.330680727958679e-01,3.854599893093109e-01,1.536611169576645e-01},
	{1.327043175697327e-01,-5.570310726761818e-02,-1.823799014091492e-01,-3.966464698314667e-01,3.043411374092102e-01,-2.927500307559967e-01,-5.807664990425110e-01,8.689893782138824e-02,1.358926147222519e-01,7.778946310281754e-02,5.833475589752197e-01,-9.314313530921936e-02,1.549018174409866e-01,1.610137671232224e-01,-1.490796264261007e-02,-1.148281246423721e-01,1.114264056086540e-01,-1.658468097448349e-01,2.766099870204926e-01,2.129489481449127e-01,3.726356923580170e-01,6.807914469391108e-04,6.639763712882996e-02,-6.338202208280563e-02,5.022798180580139e-01,3.287118859589100e-03,3.421211987733841e-02,3.728040726855397e-03,5.179115533828735e-01,-3.866540491580963e-01,-1.196902155876160e+00,8.382328599691391e-02,8.654998242855072e-02,-3.587993979454041e-01,-3.706133067607880e-01},
	{-8.611050993204117e-02,-3.070686757564545e-02,2.504966594278812e-02,1.369790136814117e-01,-1.701118238270283e-02,-2.040205597877502e-01,2.025913894176483e-01,-6.455415487289429e-01,-2.733210027217865e-01,3.856660127639771e-01,1.052883118391037e-01,3.934257626533508e-01,-4.144301414489746e-01,1.374467313289642e-01,1.210817918181419e-01,-8.110946416854858e-02,-2.956618964672089e-01,5.732138827443123e-02,2.884728908538818e-01,1.879077218472958e-02,-1.337217390537262e-01,3.451975807547569e-02,-4.835730046033859e-02,-1.940107941627502e-01,1.425634026527405e-01,-1.997641772031784e-01,-5.588107705116272e-01,1.580160111188889e-01,1.121547259390354e-02,2.095205932855606e-01,1.390029191970825e-01,-5.013391375541687e-01,8.559731394052505e-02,1.956301182508469e-01,2.147797942161560e-01},
	{1.300328373908997e-01,-2.968594133853912e-01,2.240794748067856e-01,-4.969258010387421e-01,-1.713771671056747e-01,1.936009824275970e-01,-3.558889329433441e-01,1.354022789746523e-02,-4.580609500408173e-01,4.283538758754730e-01,2.440466880798340e-01,5.035999044775963e-02,-3.785712122917175e-01,-1.733050197362900e-01,5.303220450878143e-02,-5.203143507242203e-02,3.076399266719818e-01,-2.707694843411446e-02,-1.592008918523788e-01,-1.438661515712738e-01,1.607329002581537e-03,-6.547478586435318e-02,7.147598266601562e-02,-9.400323778390884e-02,7.388310879468918e-02,-2.722330689430237e-01,-1.966524720191956e-01,1.595822125673294e-01,1.139220222830772e-01,6.216897368431091e-01,-1.113487720489502e+00,-2.963677346706390e-01,2.724663019180298e-01,-1.199608668684959e-01,-5.656443834304810e-01},
	{2.125209122896194e-01,-7.412585616111755e-02,-1.927903145551682e-01,-7.068648189306259e-02,2.508237659931183e-01,7.950946092605591e-01,3.719703555107117e-01,-5.509874597191811e-02,3.398241102695465e-02,-1.429221928119659e-01,-2.970535457134247e-01,2.193958312273026e-01,2.580430209636688e-01,9.337817132472992e-02,2.264340519905090e-01,-5.490824580192566e-01,3.263878524303436e-01,-2.101062536239624e-01,5.655040740966797e-01,-1.930904984474182e-01,3.219365179538727e-01,-3.431724011898041e-01,1.952897757291794e-01,-7.085129618644714e-02,2.308884263038635e-01,-6.338343024253845e-01,-2.836924493312836e-01,-9.298598021268845e-02,-1.969143301248550e-01,-1.398217231035233e-01,-2.469804435968399e-01,6.185978651046753e-02,4.929461181163788e-01,3.262934684753418e-01,2.367237955331802e-01},
	{-2.923001050949097e-01,-1.861717700958252e-01,-7.715173065662384e-02,4.332888126373291e-01,3.264996409416199e-01,-4.321978986263275e-01,9.020631909370422e-01,1.028359889984131e+00,-8.429490961134434e-03,1.024621799588203e-01,2.785286605358124e-01,6.544601172208786e-02,-7.069199532270432e-02,3.385201394557953e-01,5.553028360009193e-02,-3.308586180210114e-01,1.072744578123093e-01,-4.113774001598358e-02,1.501470953226089e-01,-6.392333656549454e-02,1.255752891302109e-01,-2.815602719783783e-02,7.944184355437756e-03,7.805759087204933e-03,-8.383414745330811e-01,-3.686563372612000e-01,7.455440610647202e-02,-5.899105593562126e-02,-5.062448978424072e-02,3.382415473461151e-01,3.758652135729790e-02,-7.499500364065170e-02,-2.630939185619354e-01,3.076344355940819e-02,1.192126274108887e-01},
	{-2.384825944900513e-01,2.594686746597290e-01,-7.361933588981628e-02,2.981844246387482e-01,6.491999328136444e-02,-1.660118848085403e-01,-2.856068611145020e-01,-6.610330939292908e-02,2.175893485546112e-01,-6.333601474761963e-01,3.022137284278870e-01,1.173831820487976e-01,-4.038701653480530e-01,5.332819819450378e-01,-1.501568853855133e-01,-1.562540829181671e-01,-6.459974646568298e-01,2.664790153503418e-01,-6.616431474685669e-02,5.280668660998344e-02,-1.081910952925682e-01,4.612270742654800e-02,7.613363116979599e-02,-3.131849765777588e-01,2.032255753874779e-02,2.882367074489594e-01,1.639581918716431e-01,-7.117338478565216e-02,5.612592101097107e-01,1.193976700305939e-01,3.767111003398895e-01,-1.074432432651520e-01,-1.281096637248993e-01,-6.014567613601685e-01,-1.511787623167038e-01},
	{-1.897751390933990e-01,-2.647826261818409e-02,-2.574796788394451e-02,-2.971727401018143e-02,-2.646697461605072e-01,-4.310555011034012e-02,2.751008570194244e-01,-4.577226936817169e-01,-6.181486696004868e-02,-2.440739721059799e-01,3.839552998542786e-01,4.772794842720032e-01,6.548098288476467e-03,1.881020367145538e-01,-1.529918909072876e-01,1.882225275039673e-02,-1.039189815521240e+00,3.430775701999664e-01,1.274808645248413e-01,-2.538210749626160e-01,7.596676945686340e-01,5.782015994191170e-02,1.292702555656433e-01,2.215992361307144e-01,-2.467423230409622e-01,-2.451172657310963e-02,9.095965325832367e-02,3.387814760208130e-02,-4.358815252780914e-01,-8.665689080953598e-02,1.570528298616409e-01,2.397841587662697e-02,6.769638508558273e-02,-1.258239448070526e-01,-1.599624156951904e-01},
	{4.750730693340302e-01,-2.107714768499136e-03,1.004380702972412e+00,1.953845024108887e-01,-2.213917672634125e-01,-2.305176705121994e-01,-9.473273158073425e-01,-1.517105251550674e-01,-6.228288263082504e-02,-5.760792270302773e-02,-2.222259342670441e-01,-2.318768501281738e-01,1.893105506896973e-01,-6.985773891210556e-02,-2.767926454544067e-02,-1.721896976232529e-01,-8.028826117515564e-02,-3.021895587444305e-01,2.480170130729675e-01,-6.747799515724182e-01,-2.202894538640976e-01,-1.501171588897705e-01,-4.125314056873322e-01,-9.457156807184219e-02,8.326178789138794e-02,-4.361183345317841e-01,-4.356634803116322e-03,-3.335660323500633e-02,-2.017478644847870e-02,1.061858981847763e-01,3.168804943561554e-01,-3.459247201681137e-02,-5.146836638450623e-01,4.269552230834961e-01,-5.564450621604919e-01},
	{-2.419650107622147e-01,5.305128544569016e-02,1.518400907516479e-01,-2.595795691013336e-02,-7.296201586723328e-02,-1.090779677033424e-01,4.275003671646118e-01,8.023152127861977e-03,4.136904329061508e-02,3.052922338247299e-02,-3.712787628173828e-01,-5.211411416530609e-02,3.476944565773010e-02,2.946464717388153e-01,-4.712875559926033e-02,-7.323328852653503e-01,3.701212108135223e-01,-4.522486031055450e-01,8.527218550443649e-02,-3.320558071136475e-01,3.246968388557434e-01,-1.865766644477844e-01,-9.347697050543502e-05,2.602023780345917e-01,3.155132234096527e-01,1.825642772018909e-02,1.070032566785812e-01,-6.635528802871704e-02,-6.005677580833435e-01,2.779141664505005e-01,7.786475419998169e-01,3.487665951251984e-02,-1.732803881168365e-02,2.822304964065552e-01,-7.266127467155457e-01},
	{4.444480836391449e-01,9.830499067902565e-03,7.076221704483032e-02,-1.174248605966568e-01,-1.368530839681625e-01,-4.074036478996277e-01,8.900367617607117e-01,-2.370821982622147e-01,4.342932626605034e-02,9.967339783906937e-02,5.117898434400558e-02,-6.835227459669113e-02,1.712951250374317e-02,-5.968687534332275e-01,2.668711245059967e-01,5.376420915126801e-02,-6.907569169998169e-01,7.192186266183853e-02,1.778603792190552e-01,-3.865742683410645e-01,1.627423763275146e-01,5.236715450882912e-02,-4.793113768100739e-01,4.126986116170883e-02,2.088982611894608e-01,1.218179166316986e-01,7.850064337253571e-02,-1.508511602878571e-01,1.289801448583603e-01,-7.633202522993088e-02,-7.956404983997345e-02,-3.630911558866501e-02,7.699044048786163e-02,4.011095166206360e-01,1.231598407030106e-01},
	{4.528952836990356e-01,1.493378430604935e-01,1.251244246959686e-01,-9.570233523845673e-02,-2.382639236748219e-02,1.529143303632736e-01,6.948250532150269e-02,1.850095540285110e-01,1.425272822380066e-01,-3.630742058157921e-02,-9.437643289566040e-01,-1.834042668342590e-01,-1.557766050100327e-01,-4.621034562587738e-01,-3.269397914409637e-01,-3.487718701362610e-01,2.793728709220886e-01,1.706252694129944e-01,1.580186337232590e-01,6.064993143081665e-01,-4.625328481197357e-01,-2.308658882975578e-02,-1.462743431329727e-01,4.669377207756042e-01,2.633108794689178e-01,4.090882241725922e-01,3.913690447807312e-01,-2.004482150077820e-01,-3.124810159206390e-01,2.660952508449554e-01,-6.309087276458740e-01,-5.200419202446938e-02,-3.887809514999390e-01,-4.762822687625885e-01,3.404617775231600e-03},
	{1.667718291282654e-01,-4.878135863691568e-03,-9.486144036054611e-02,2.435590177774429e-01,3.876076936721802e-01,3.120466172695160e-01,4.187478870153427e-02,-2.358417063951492e-01,-2.647135220468044e-02,1.617194712162018e-01,4.972220063209534e-01,3.034713305532932e-02,-2.922674119472504e-01,-3.284262418746948e-01,1.345170438289642e-01,-6.229938566684723e-02,7.290174067020416e-02,5.485258102416992e-01,-4.985972642898560e-01,3.837257921695709e-01,7.100284099578857e-01,6.500101089477539e-01,6.880424022674561e-01,-5.839945673942566e-01,3.943908214569092e-01,2.021661996841431e-01,1.512620747089386e-01,-1.264144629240036e-01,2.064720690250397e-01,-1.209936216473579e-01,-1.213991548866034e-02,1.561720855534077e-02,3.011079132556915e-01,1.362317502498627e-01,-1.710363328456879e-01},
	{-5.134038999676704e-02,2.383017912507057e-02,1.417920291423798e-01,5.833905190229416e-02,-3.243801295757294e-01,5.621018260717392e-02,-7.594085931777954e-01,3.627364635467529e-01,-8.905566483736038e-02,-1.854019165039062e-01,-8.049401044845581e-01,6.133884191513062e-02,-8.976311981678009e-02,4.140504002571106e-01,-2.400120943784714e-01,-2.953197360038757e-01,-2.086341083049774e-01,-7.310173511505127e-01,9.608672559261322e-02,-4.257514476776123e-01,-7.287970185279846e-02,2.753914594650269e-01,4.721665680408478e-01,-3.883975446224213e-01,-3.222859799861908e-01,3.560345992445946e-02,3.566961586475372e-01,-4.483104869723320e-02,4.025098979473114e-01,-2.227492630481720e-02,-8.131521940231323e-02,1.628355681896210e-02,-6.090636178851128e-02,-1.855137944221497e-01,-3.416378498077393e-01},
	{8.335485123097897e-03,-2.323213368654251e-01,8.098191767930984e-02,-8.746693283319473e-02,1.432596296072006e-01,3.430874645709991e-01,2.640652656555176e-01,-1.015677526593208e-01,-2.746638357639313e-01,-5.856845378875732e-01,8.459550887346268e-02,-3.549430072307587e-01,6.904894858598709e-02,5.124139785766602e-01,-1.242345348000526e-01,-2.904221042990685e-02,9.320567548274994e-02,-1.129676103591919e-01,-6.188297271728516e-02,-1.705779694020748e-02,-3.018406685441732e-03,-1.367223560810089e-01,4.093299433588982e-02,5.055108666419983e-01,-1.772093176841736e-01,2.251010835170746e-01,4.484159126877785e-02,-1.932877749204636e-01,-1.512447893619537e-01,1.167060211300850e-01,4.213611595332623e-03,7.844887971878052e-01,1.850234419107437e-01,-4.569080471992493e-02,7.315387018024921e-03},
	{2.488893568515778e-01,4.131232853978872e-03,-6.892561167478561e-02,-2.528526782989502e-01,4.649783372879028e-01,3.847048282623291e-01,-6.581752896308899e-01,-2.211935520172119e-01,5.110086128115654e-02,-1.111860573291779e-01,6.153408288955688e-01,-1.108880117535591e-01,-6.919398158788681e-02,-5.219607800245285e-02,-9.271111339330673e-02,3.331065773963928e-01,-2.298837155103683e-01,-1.872786134481430e-01,3.575358539819717e-02,-1.284134685993195e-01,-2.520112395286560e-01,5.132192745804787e-02,-1.891093999147415e-01,-1.974996179342270e-01,-2.128212451934814e-01,4.073161482810974e-01,-1.575316488742828e-01,-9.460032731294632e-02,-7.288236618041992e-01,3.178392350673676e-01,1.378251016139984e-01,-8.426488190889359e-02,-2.071734517812729e-01,-7.023341208696365e-02,-4.893532097339630e-01},
	{-7.518394291400909e-02,2.246574759483337e-01,4.636782407760620e-02,3.146505653858185e-01,-2.581069767475128e-01,2.336068004369736e-01,-5.355002284049988e-01,1.566142775118351e-02,3.311842679977417e-01,1.008437573909760e-02,8.649971336126328e-02,-1.881967484951019e-01,-6.478717327117920e-01,4.028976857662201e-01,5.996080115437508e-02,-1.135694328695536e-02,-4.003938138484955e-01,6.597671657800674e-02,-2.841432690620422e-01,-1.474178731441498e-01,5.290414690971375e-01,2.564579993486404e-02,7.116281241178513e-02,-2.566328621469438e-04,2.509699761867523e-01,1.280799806118011e-01,2.000307142734528e-01,-3.555438220500946e-01,4.685640335083008e-01,1.847139745950699e-01,5.168122239410877e-03,-1.081922650337219e-01,-1.849370151758194e-01,7.532340288162231e-01,4.482882022857666e-01},
	{-8.614432811737061e-02,-6.536787748336792e-02,-7.698602229356766e-02,-3.841201663017273e-01,3.894458711147308e-01,4.980975687503815e-01,-6.723959743976593e-02,1.471271812915802e-01,2.925756275653839e-01,1.734711825847626e-01,4.223139286041260e-01,2.393809854984283e-01,4.722599089145660e-01,-3.492869436740875e-01,-1.170163135975599e-02,-2.309029102325439e-01,2.372129410505295e-01,1.239148527383804e-01,-1.898947209119797e-01,9.502432495355606e-02,-1.872098818421364e-02,2.003159224987030e-01,1.434638798236847e-01,-1.274102181196213e-02,-7.567510753870010e-02,1.469182521104813e-01,8.741210401058197e-02,2.400541603565216e-01,-1.077626869082451e-01,2.204504758119583e-01,-1.936812847852707e-01,4.797125235199928e-02,-4.881572350859642e-02,4.170885682106018e-01,-2.820087969303131e-01},
	{-2.580383121967316e-01,-8.300124667584896e-03,2.448287419974804e-02,2.695395424962044e-02,2.433739602565765e-01,5.894940346479416e-02,-2.522672116756439e-01,1.161987707018852e-01,4.507233500480652e-01,7.371498346328735e-01,8.108298480510712e-02,5.354011058807373e-01,-8.728962540626526e-01,3.359327614307404e-01,2.114417552947998e-01,2.313280850648880e-01,-1.206900924444199e-02,-6.129030585289001e-01,-5.530487746000290e-02,1.101364493370056e-01,-8.841348439455032e-02,1.352708637714386e-01,-2.007683552801609e-02,7.766367197036743e-01,-3.486134409904480e-01,-3.861387819051743e-02,3.613664507865906e-01,-6.144018098711967e-02,2.813678383827209e-01,4.693018198013306e-01,-1.105907335877419e-01,5.743569135665894e-01,-3.682836517691612e-02,-9.366288781166077e-02,2.050835080444813e-02},
	{3.156797960400581e-02,-6.690487265586853e-02,-5.839883685112000e-01,7.812196761369705e-02,1.371684521436691e-01,-1.230361834168434e-01,-8.829033374786377e-01,1.110710501670837e-01,4.305778816342354e-02,-2.681570649147034e-01,5.659769773483276e-01,5.460882186889648e-01,3.124880194664001e-01,6.248546391725540e-02,2.675045728683472e-01,-1.708395592868328e-02,1.371914148330688e-02,1.888626515865326e-01,1.215283051133156e-01,-4.480229914188385e-01,-8.937574923038483e-02,5.441732406616211e-01,-6.040410399436951e-01,7.847959995269775e-01,9.518342465162277e-02,1.269174963235855e-01,4.669089615345001e-02,1.003253534436226e-01,9.941432625055313e-02,2.596174180507660e-02,-7.894892990589142e-02,-2.159769684076309e-01,-1.153545230627060e-01,2.934746816754341e-02,-2.310720533132553e-01},
	{-3.797327876091003e-01,2.075043022632599e-01,9.848230332136154e-02,-7.793660461902618e-02,-9.801653772592545e-02,-1.710305549204350e-02,-9.338293969631195e-02,3.546966016292572e-01,-1.383530348539352e-01,-4.701273143291473e-01,-7.757886648178101e-01,1.398225724697113e-01,4.667689278721809e-02,1.605044156312943e-01,1.970664411783218e-01,-1.032511591911316e-01,4.265702962875366e-01,-2.522285878658295e-01,2.200261056423187e-01,1.679058074951172e-01,-8.365685492753983e-02,1.190987154841423e-01,-2.284597456455231e-01,-2.398834936320782e-02,-1.417881548404694e-01,5.737316235899925e-02,2.987303137779236e-01,-1.856949031352997e-01,2.471285611391068e-01,-9.698230773210526e-02,8.942614495754242e-02,-3.463971912860870e-01,1.056000888347626e-01,-8.533611148595810e-02,3.052546381950378e-01},
	{-1.711889915168285e-02,-5.367632582783699e-02,1.915098279714584e-01,6.591516137123108e-01,4.818812012672424e-01,-2.515011131763458e-01,8.325636386871338e-01,-6.758196353912354e-01,7.354421913623810e-02,6.600950658321381e-02,4.341899454593658e-01,-4.582056030631065e-02,-2.298793196678162e-01,2.244675308465958e-01,-2.003692090511322e-01,-1.952781826257706e-01,1.749865412712097e-01,-2.665302455425262e-01,-5.298049002885818e-02,5.011371374130249e-01,-7.443447411060333e-02,1.844247877597809e-01,2.765561342239380e-01,2.615599520504475e-02,-2.094281166791916e-01,2.610956691205502e-02,-1.677067428827286e-01,5.541833862662315e-02,1.524069309234619e-01,-2.487735748291016e-01,2.967700958251953e-01,4.774238169193268e-02,4.684424102306366e-01,2.453606724739075e-01,2.315301895141602e-01},
	{2.713985145092010e-01,-4.805279150605202e-02,-4.486515000462532e-02,-5.975621938705444e-01,1.521840542554855e-01,4.058213159441948e-02,2.264310270547867e-01,-7.901184558868408e-01,1.506330966949463e-01,-7.560542225837708e-02,6.447058320045471e-01,2.976996302604675e-01,2.265255153179169e-02,8.107596635818481e-01,3.559308648109436e-01,5.433195829391479e-01,1.252056360244751e-01,-4.036308266222477e-03,5.060585588216782e-02,5.001948475837708e-01,-8.989904820919037e-02,6.017144769430161e-02,-8.143843710422516e-02,-3.667782992124557e-02,-2.327340468764305e-02,1.010685972869396e-02,2.574393153190613e-01,-9.088592231273651e-02,2.880906164646149e-01,5.284496024250984e-02,-9.125749766826630e-02,2.746292948722839e-01,2.081131562590599e-02,8.004140108823776e-02,8.226616680622101e-02},
	{-1.181514784693718e-01,-7.911580055952072e-02,1.364906728267670e-01,-2.882351577281952e-01,2.251123040914536e-01,-2.756739780306816e-02,6.715482473373413e-01,2.441370785236359e-01,3.816074505448341e-02,-3.405988514423370e-01,9.229546040296555e-02,3.099397420883179e-01,1.199423968791962e-01,2.525010108947754e-01,-1.063429042696953e-01,2.197557240724564e-01,1.265076696872711e-01,6.507290899753571e-02,-6.374214589595795e-02,-3.490025997161865e-01,-2.732183039188385e-01,-1.541638135910034e+00,-2.084936201572418e-01,4.710648357868195e-01,3.794637322425842e-01,-6.120605468750000e-01,4.000281170010567e-02,1.131221652030945e-01,1.684733778238297e-01,-1.212484613060951e-01,-5.743595212697983e-02,-2.547830343246460e-01,-1.985103935003281e-01,3.319203108549118e-02,2.642630934715271e-01},
	{-7.063332945108414e-02,1.140296012163162e-01,-1.342287752777338e-02,-1.529102921485901e-01,-3.174834847450256e-01,-4.216706156730652e-01,-4.614392295479774e-02,-5.736556649208069e-01,8.702980726957321e-02,-3.126994669437408e-01,-2.834681607782841e-02,-4.321492314338684e-01,1.965121775865555e-01,-2.528191916644573e-02,-1.291145682334900e-01,-4.420149028301239e-01,-8.124677836894989e-02,3.483521044254303e-01,-3.710131049156189e-01,-5.293596982955933e-01,7.937549799680710e-02,-4.173111915588379e-02,2.412066310644150e-01,-2.466027997434139e-02,-2.868293039500713e-02,8.821202442049980e-03,1.372826695442200e-01,-3.506213426589966e-02,1.966071873903275e-01,-4.528488218784332e-01,6.065927147865295e-01,3.862484171986580e-02,1.527628749608994e-01,-1.034360975027084e-01,-1.356478780508041e-01},
	{1.884225606918335e-01,-1.428613364696503e-01,-7.398115098476410e-02,3.382890522480011e-01,3.840602934360504e-01,2.514567673206329e-01,-8.774563670158386e-03,-8.398727327585220e-02,1.992542594671249e-01,1.506489794701338e-02,1.869340091943741e-01,3.702511787414551e-01,-2.192555963993073e-01,-1.016225591301918e-01,-1.914039850234985e-01,2.181672304868698e-01,6.545203328132629e-01,-2.606388926506042e-02,-1.422152295708656e-02,-3.547340333461761e-01,2.273529469966888e-01,-3.327042609453201e-02,-1.229627877473831e-01,-1.297753155231476e-01,-3.368079364299774e-01,-4.464757740497589e-01,4.686892926692963e-01,4.901490211486816e-01,1.390680577605963e-02,-3.505474328994751e-01,-6.016411185264587e-01,-1.143851131200790e-01,1.101282425224781e-02,-1.895592082291842e-03,9.415258467197418e-02},
	{2.447090446949005e-01,-3.589418232440948e-01,-5.982682108879089e-02,4.376741051673889e-01,-2.151756137609482e-01,2.334938198328018e-01,-3.027104735374451e-01,-2.937203347682953e-01,8.431114256381989e-02,-3.966445848345757e-02,-2.273358851671219e-01,1.756570488214493e-02,1.199506893754005e-01,1.609512716531754e-01,4.364092051982880e-01,-5.566731691360474e-01,3.011646866798401e-01,1.703772097826004e-01,6.230807900428772e-01,-4.503735601902008e-01,-2.291244864463806e-01,3.315031826496124e-01,1.259742230176926e-01,-2.187181413173676e-01,-3.075372576713562e-01,-6.221714019775391e-01,1.393610388040543e-01,2.135303318500519e-01,9.789114445447922e-02,-5.038541182875633e-02,1.218540742993355e-01,-1.182088926434517e-01,-8.449604362249374e-02,-9.067500382661819e-02,-6.008836030960083e-01},
	{-1.291770190000534e-01,1.620997861027718e-02,-5.974160134792328e-02,-7.822942137718201e-01,-1.757932007312775e-01,2.993928641080856e-02,9.809782356023788e-02,-2.364261448383331e-01,-1.317720115184784e-02,9.649065881967545e-02,-7.044031023979187e-01,1.958502456545830e-02,-6.684055924415588e-02,6.436310410499573e-01,2.296851016581059e-02,-1.825452893972397e-01,1.451494991779327e-01,2.862982749938965e-01,-1.372501999139786e-01,-4.437251091003418e-01,1.547866165637970e-01,-4.610865935683250e-02,-1.546685993671417e-01,1.682036817073822e-01,-1.531944274902344e-01,-1.030250862240791e-01,7.168063521385193e-02,1.273951232433319e-01,-2.483032643795013e-01,1.697383373975754e-01,3.005085289478302e-01,8.631110936403275e-02,9.895701706409454e-02,-1.288128048181534e-01,-1.635098457336426e-01},
	{1.243196129798889e-01,5.557993799448013e-02,-3.120780363678932e-02,1.999233067035675e-01,-6.614382565021515e-02,-1.800381392240524e-01,-3.958213031291962e-01,9.940345585346222e-02,4.360868781805038e-02,-2.915718778967857e-02,-1.964667737483978e-01,-5.381288528442383e-01,-2.419557608664036e-02,4.255148470401764e-01,1.104558587074280e+00,-2.887408733367920e-01,-1.356751285493374e-02,-1.599150896072388e-02,6.875188350677490e-01,6.940553188323975e-01,3.136978447437286e-01,6.760612875223160e-02,-9.256234765052795e-02,7.022483646869659e-02,-1.195731312036514e-01,-3.077341020107269e-01,-6.286635994911194e-02,-4.284836351871490e-02,-2.095589786767960e-01,1.059372872114182e-01,2.621235847473145e-01,-7.691843807697296e-02,4.828058183193207e-01,3.621765645220876e-03,1.380474269390106e-01},
	{-1.825559437274933e-01,-1.091848406940699e-02,3.382481038570404e-01,-2.404273301362991e-01,6.128437519073486e-01,4.266571402549744e-01,4.463575184345245e-01,-1.055461168289185e-01,-2.732105739414692e-02,-4.068093001842499e-02,4.855391383171082e-01,9.994287043809891e-02,7.556916028261185e-02,-4.336979687213898e-01,6.648930311203003e-01,1.053438261151314e-01,5.376997590065002e-02,-2.204833775758743e-01,1.963805705308914e-01,1.131086200475693e-01,-4.233449101448059e-01,-2.186175286769867e-01,2.838358469307423e-02,1.295631974935532e-01,3.727732300758362e-01,2.467501461505890e-01,1.243599578738213e-01,1.243798211216927e-01,4.361217096447945e-02,-1.106231361627579e-01,-1.633404195308685e-01,7.196316123008728e-02,8.477371931076050e-01,-2.811592221260071e-01,-5.346925854682922e-01},
	{-2.976762354373932e-01,5.673675611615181e-02,1.180984601378441e-01,-2.360946089029312e-01,1.494871377944946e-01,-1.089259311556816e-01,1.273289322853088e+00,-1.693683303892612e-02,-1.169390976428986e-02,1.801515072584152e-01,2.394378334283829e-01,-4.933196306228638e-02,-1.449936479330063e-01,4.295476898550987e-02,-3.068191744387150e-02,-7.222259789705276e-02,1.908350037410855e-03,-1.616926193237305e-01,1.503666639328003e-01,5.668791532516479e-01,-7.672193646430969e-01,-1.304358839988708e+00,1.278439164161682e-01,-5.006710812449455e-02,1.605238914489746e-01,7.684519886970520e-01,9.150343947112560e-03,-7.677429169416428e-02,-1.403372883796692e-01,3.849728703498840e-01,-3.272202908992767e-01,-1.306918412446976e-01,4.563409984111786e-01,2.231610193848610e-02,-3.903226926922798e-02},
	{1.662043929100037e-01,-1.993897855281830e-01,1.897918581962585e-01,-2.325447797775269e-01,-1.051355972886086e-01,2.823319435119629e-01,-5.849767923355103e-01,-4.620904922485352e-01,-2.453622072935104e-01,-8.447623252868652e-02,5.582984089851379e-01,4.592533409595490e-01,2.360277026891708e-01,3.101939558982849e-01,9.038201719522476e-02,-8.491384238004684e-02,4.877123236656189e-01,-2.877504229545593e-01,-2.420006245374680e-01,1.306772589683533e+00,-5.068659782409668e-02,4.471882879734039e-01,2.199977636337280e-01,-4.612666070461273e-01,1.768028736114502e-01,4.540576785802841e-02,-3.699961304664612e-01,2.286608219146729e-01,4.091365635395050e-01,2.811822593212128e-01,-1.660795360803604e-01,1.471847668290138e-02,-1.073666363954544e-01,-2.291620224714279e-01,-6.647172383964062e-03},
	{1.413766294717789e-02,-4.465009570121765e-01,1.704463176429272e-02,1.212437525391579e-01,-2.491860091686249e-01,1.541106551885605e-01,5.850682035088539e-03,1.006776317954063e-01,-5.597188472747803e-01,4.463243782520294e-01,-3.442454710602760e-02,2.348038554191589e-02,7.440964579582214e-01,2.793515622615814e-01,-4.236416518688202e-02,-1.847676932811737e-02,-1.567859798669815e-01,1.932259351015091e-01,7.167199999094009e-02,-1.047901585698128e-01,-5.273918807506561e-02,-1.913651823997498e-02,5.480608344078064e-02,2.710373997688293e-01,2.016546577215195e-01,-5.075381994247437e-01,-3.705123662948608e-01,6.308390498161316e-01,4.477350413799286e-02,3.595409989356995e-01,1.164682805538177e-01,3.262123167514801e-01,4.765765368938446e-02,3.778230845928192e-01,-1.449773013591766e-01},
	{-6.210468411445618e-01,-1.962323784828186e-01,2.801305800676346e-02,2.499335259199142e-01,1.065790727734566e-01,8.640824817121029e-03,-2.139688432216644e-01,-3.563188910484314e-01,-2.569007873535156e-01,8.397362194955349e-03,-1.016604781150818e+00,2.435960024595261e-01,4.942273199558258e-01,-1.400661170482635e-01,6.787262111902237e-02,6.905640363693237e-01,9.490863233804703e-02,5.033223628997803e-01,-2.381913959980011e-01,-1.904980279505253e-02,-1.095151454210281e-01,7.940854877233505e-02,-8.230579085648060e-03,-4.773252904415131e-01,-5.816467404365540e-01,-1.153843943029642e-02,-4.638075828552246e-01,9.629917889833450e-02,2.390044033527374e-01,-1.304519027471542e-01,4.047372341156006e-01,-1.020059287548065e-01,-1.060100868344307e-01,2.119178175926208e-01,5.192441344261169e-01},
	{3.178342804312706e-02,-1.871848106384277e-01,-5.932776331901550e-01,3.455233275890350e-01,-7.621381431818008e-02,-2.718857526779175e-01,3.647366464138031e-01,1.936481297016144e-01,1.251531094312668e-01,-1.769993454217911e-01,5.061818659305573e-02,3.750305175781250e-01,-1.537622362375259e-01,-2.934738695621490e-01,-3.396225571632385e-01,4.508873224258423e-01,-6.788136363029480e-01,-4.740831851959229e-01,-4.062751531600952e-01,1.897223293781281e-01,-1.526896469295025e-02,-1.169248819351196e+00,1.151814460754395e-01,1.055317092686892e-02,-4.337846934795380e-01,1.907478868961334e-01,2.065372020006180e-01,-1.639553159475327e-01,-4.496918916702271e-01,6.554584484547377e-03,4.344244897365570e-01,-7.507520169019699e-02,5.099268164485693e-03,1.890623010694981e-02,6.037800312042236e-01},
	{-2.727498114109039e-01,-1.267232745885849e-01,5.675245076417923e-02,9.358873367309570e-01,-2.631689012050629e-01,5.750988721847534e-01,2.853405177593231e-01,2.521058917045593e-01,-7.092696614563465e-04,3.586960583925247e-02,3.832823932170868e-01,4.856594651937485e-02,7.222166657447815e-02,-1.446535289287567e-01,1.942154020071030e-02,6.054496020078659e-02,-1.105605438351631e-01,2.349458932876587e-01,-1.619774475693703e-02,3.787764906883240e-01,-6.046206504106522e-02,-9.010148793458939e-02,-2.669317126274109e-01,2.196570485830307e-01,1.423124223947525e-01,2.843946032226086e-02,-6.729974597692490e-02,-8.392237871885300e-02,6.397505402565002e-01,-6.163495182991028e-01,7.505718618631363e-02,-2.628881856799126e-02,-5.546863675117493e-01,8.111517131328583e-02,2.781972885131836e-01},
	{8.271952718496323e-02,1.452512145042419e-01,-1.693375110626221e-01,-3.189108669757843e-01,3.144390881061554e-01,-6.009628530591726e-03,3.576236665248871e-01,-1.531369537115097e-01,-5.621361359953880e-02,-1.131202504038811e-01,1.009407714009285e-01,9.741003066301346e-02,4.236134886741638e-01,-8.893626183271408e-02,-1.099291443824768e-01,-2.740307711064816e-02,-7.026822566986084e-01,-8.183420896530151e-01,-6.602414250373840e-01,1.587831228971481e-01,-3.182885646820068e-01,2.565181553363800e-01,1.174759492278099e-02,-3.014099895954132e-01,-2.231704145669937e-01,2.288985699415207e-01,-2.724492847919464e-01,1.670828275382519e-02,8.821368217468262e-02,-5.795684456825256e-02,6.000639870762825e-02,1.488908678293228e-01,-4.701343178749084e-01,2.844358980655670e-01,1.168290600180626e-01}};
float weights_tr2_1_2[35]={6.724885702133179e-01,5.665197968482971e-02,-1.816812902688980e-01,-3.171222209930420e-01,-3.968355655670166e-01,-2.046977542340755e-02,-4.597971588373184e-02,-8.471697568893433e-02,1.515276581048965e-01,2.583298385143280e-01,-3.693551421165466e-01,-2.394340559840202e-02,-6.296420097351074e-02,-3.389589786529541e-01,-1.196810826659203e-01,3.909685835242271e-02,-2.189688235521317e-01,5.793178081512451e-01,2.399493455886841e-01,3.134133815765381e-01,-2.647371590137482e-01,-7.462247461080551e-02,2.070234268903732e-01,-9.790240973234177e-02,6.864168494939804e-02,-2.623645663261414e-01,1.669906452298164e-02,9.619171917438507e-02,-4.862790703773499e-01,-8.108288049697876e-02,3.355669677257538e-01,1.843290925025940e-01,-2.178228497505188e-01,3.826741576194763e-01,-1.532455831766129e-01};
