float weights_bn_0_0[9]={4.585056900978088e-01,3.233849406242371e-01,1.245206832885742e+00,3.735939785838127e-02,1.136003613471985e+00,9.415502548217773e-01,8.457269072532654e-01,5.787742137908936e-01,8.655525445938110e-01};
float weights_bn_1_0[9]={-1.061627455055714e-02,-4.622437991201878e-03,2.984901964664459e-01,1.188665628433228e-04,6.017540022730827e-02,-3.330916166305542e-02,6.487819831818342e-03,2.996137142181396e-01,1.112035214900970e-01};
float weights_bn_2_0[9]={-4.068698883056641e+00,7.985739898681641e+01,2.410038146972656e+02,1.187720417976379e+00,1.504028141498566e-01,1.797133311629295e-02,1.957061588764191e-01,3.113632798194885e-01,1.235663294792175e-01};
float weights_bn_3_0[9]={5.880996875000000e+04,5.123732421875000e+04,9.198282812500000e+04,3.690391540527344e+01,9.935650229454041e-02,9.926084429025650e-02,4.062590748071671e-02,1.327762939035892e-02,8.422822505235672e-02};
float weights_tr1_0_0[9][49]={
	{5.042252540588379e-01,5.990150570869446e-01,-1.497091166675091e-02,-2.508765161037445e-01,-2.879963219165802e-01,1.232746317982674e-01,7.524428516626358e-02,-1.933797262609005e-02,4.209849536418915e-01,2.647794783115387e-02,4.019464552402496e-01,-7.321742922067642e-02,2.806811928749084e-01,-8.277337253093719e-02,-7.636298537254333e-01,4.894959628582001e-01,-1.201138570904732e-01,1.050208788365126e-02,2.062865495681763e-01,-4.927987605333328e-02,3.105765767395496e-02,-1.442891545593739e-03,1.289757043123245e-01,-1.846314370632172e-01,-1.094257757067680e-01,-9.707342833280563e-02,3.391694724559784e-01,-6.150371395051479e-03,1.505765914916992e-01,8.197379857301712e-02,-1.230049878358841e-01,-6.708110217005014e-03,2.959118187427521e-01,1.131366640329361e-01,-8.088666200637817e-02,-1.594359613955021e-02,-8.230019360780716e-02,-1.289733648300171e-01,1.686735637485981e-02,-1.591625213623047e-01,9.615886025130749e-03,2.136706747114658e-02,-3.742964938282967e-02,-9.401948004961014e-02,6.551929116249084e-01,2.443607002496719e-01,-3.183605894446373e-02,8.155957795679569e-03,2.671532630920410e-01},
	{-1.246345117688179e-01,-7.944259792566299e-02,-5.544367432594299e-02,-4.083764851093292e-01,-7.359229028224945e-02,-1.430452764034271e-01,-6.312640383839607e-03,5.165408365428448e-03,-2.246112227439880e-01,-1.244039237499237e-01,-1.399343311786652e-01,-4.670004919171333e-02,-2.082978002727032e-02,5.921196192502975e-03,1.726595610380173e-01,-1.916639506816864e-01,-1.060135141015053e-01,7.202316820621490e-02,7.303629815578461e-02,-6.009328365325928e-02,4.571893438696861e-02,-3.168781474232674e-02,3.093193843960762e-02,-1.463197469711304e-01,-1.535953208804131e-02,7.623048871755600e-02,-6.588013768196106e-01,-5.356456339359283e-02,1.064439117908478e-01,2.054762244224548e-01,-5.661557912826538e-01,-1.252584755420685e-01,-2.172677069902420e-01,1.472949981689453e-01,3.004042506217957e-01,-1.403698623180389e-01,2.447373978793621e-02,7.087814807891846e-02,-1.037431284785271e-01,-2.488625198602676e-01,2.977052517235279e-02,5.283329635858536e-02,-6.576686352491379e-02,-1.522799283266068e-01,-7.056531906127930e-01,1.052314043045044e-01,1.232184246182442e-01,-8.871088922023773e-02,1.141477078199387e-01},
	{1.148545835167170e-02,-3.337330222129822e-01,9.382028579711914e-01,-3.239197432994843e-01,3.861438333988190e-01,-5.725236535072327e-01,-1.047685146331787e+00,2.742576897144318e-01,2.168223820626736e-02,9.943751245737076e-02,-8.427019417285919e-02,4.607733488082886e-01,-1.011599227786064e-01,-7.793070673942566e-01,4.088659584522247e-02,-1.132973283529282e-01,-2.993065714836121e-01,1.111610054969788e+00,-4.654401838779449e-01,5.403115749359131e-01,8.501226902008057e-01,-4.786855280399323e-01,5.395146608352661e-01,-3.223942592740059e-02,-3.505019545555115e-01,-5.046033263206482e-01,1.672190129756927e-01,1.076537370681763e-02,-3.484359383583069e-01,-2.323927283287048e-01,-1.771393977105618e-02,1.983855366706848e-01,-2.067919820547104e-02,5.449796915054321e-01,6.347373872995377e-02,1.009226441383362e+00,6.724705547094345e-02,-1.044417098164558e-01,2.764939889311790e-02,-2.464558929204941e-02,1.654486544430256e-02,4.337524771690369e-01,-3.640601038932800e-01,5.500840544700623e-01,2.848667502403259e-01,5.988037586212158e-01,6.149152517318726e-01,1.994559466838837e-01,4.610489308834076e-02},
	{9.452245384454727e-02,5.463965609669685e-02,-2.445539236068726e-01,1.010168567299843e-01,7.184254378080368e-02,-2.022896707057953e-01,-5.741093680262566e-02,1.305361539125443e-01,-2.155973762273788e-01,-2.521505355834961e-01,3.546845912933350e-01,6.620749831199646e-02,1.509188413619995e-01,4.796582832932472e-02,-3.354249522089958e-02,-4.320203140377998e-02,-2.617030441761017e-01,1.238206122070551e-02,4.458171129226685e-02,3.100008517503738e-02,6.428574770689011e-02,2.553597837686539e-02,-1.464610267430544e-02,1.393792331218719e-01,2.353488951921463e-01,3.929382264614105e-01,-7.499151676893234e-02,-2.120190411806107e-01,-4.940176010131836e-02,1.061196774244308e-01,1.842574626207352e-01,8.672621846199036e-02,3.411553055047989e-02,-1.793315857648849e-01,1.579764038324356e-01,-5.395050346851349e-02,-1.247259974479675e-01,5.739819258451462e-02,-6.902914047241211e-01,2.334969118237495e-02,-2.636958099901676e-02,-1.241314932703972e-01,3.234522640705109e-01,-5.430093035101891e-02,-8.441394567489624e-02,-6.396491825580597e-02,2.256179153919220e-01,1.348317563533783e-01,4.564554393291473e-01},
	{1.169835180044174e-01,-1.597271412611008e-01,-1.381620913743973e-01,2.312542647123337e-01,-6.641736030578613e-01,3.256645798683167e-01,3.722197711467743e-01,-3.417049720883369e-02,8.561406284570694e-02,-6.821758151054382e-01,-3.295805156230927e-01,1.033279523253441e-01,-1.644190517254174e-03,5.909005403518677e-01,-8.680720627307892e-02,4.886754453182220e-01,2.723007462918758e-02,-1.111099943518639e-01,3.407263159751892e-01,-2.679715156555176e-01,-2.358300238847733e-01,3.745274245738983e-01,-2.765700817108154e-01,7.136742770671844e-02,5.375349521636963e-01,4.006503615528345e-03,-3.208284676074982e-01,3.954036533832550e-01,4.433444738388062e-01,-2.007377594709396e-01,5.833914279937744e-01,-1.939375996589661e-01,-7.263911515474319e-02,4.821135401725769e-01,3.949182033538818e-01,-2.720644772052765e-01,5.078495293855667e-02,-4.019510373473167e-02,2.640485167503357e-01,-1.720894128084183e-02,2.899891436100006e-01,2.993076443672180e-01,8.015000820159912e-01,-5.564321279525757e-01,4.585395753383636e-02,-2.008507698774338e-01,-2.582424283027649e-01,-1.100763604044914e-01,2.477340772747993e-02},
	{-2.284530252218246e-01,-2.599939331412315e-02,8.363336324691772e-03,-1.914346963167191e-01,-3.415868580341339e-01,-1.116952747106552e-01,2.546893060207367e-01,-5.990778803825378e-01,4.791132211685181e-01,-5.341001749038696e-01,-6.826785206794739e-01,3.972893953323364e-02,1.974211186170578e-01,1.818023920059204e-01,-4.247469827532768e-02,3.990208506584167e-01,3.830586373806000e-01,-1.520142238587141e-02,1.740097105503082e-01,-4.423618018627167e-01,-5.857045650482178e-01,5.574890971183777e-02,-4.726624116301537e-02,3.732578754425049e-01,2.104621380567551e-01,-3.149521648883820e-01,-7.023502886295319e-02,3.121467828750610e-01,2.919425070285797e-01,-1.445811837911606e-01,3.055949509143829e-01,6.880715489387512e-01,1.438588798046112e-01,1.895273923873901e-01,3.931859731674194e-01,-7.764963060617447e-02,-4.419836103916168e-01,1.873586624860764e-01,4.980912506580353e-01,4.356329143047333e-02,2.038445174694061e-01,1.725611835718155e-01,5.713203549385071e-01,-5.479348897933960e-01,3.145403861999512e-01,-2.378633022308350e-01,-3.780945241451263e-01,-4.353946447372437e-02,-1.682016700506210e-01},
	{-1.511975079774857e-01,-3.516511991620064e-02,3.500136435031891e-01,-8.262138068675995e-02,-2.565491795539856e-01,-5.754298567771912e-01,-4.480919614434242e-02,-2.270592004060745e-01,9.091091156005859e-02,2.699952721595764e-01,-2.338855117559433e-01,-1.476860791444778e-01,-2.687800526618958e-01,3.272496461868286e-01,-1.170506998896599e-01,4.112568497657776e-01,-3.139122128486633e-01,4.718530923128128e-02,6.564626842737198e-02,2.014631032943726e-01,-2.244605720043182e-01,4.322364032268524e-01,-2.754684388637543e-01,4.250611364841461e-01,-4.376955628395081e-01,-3.976813554763794e-01,8.415551483631134e-02,3.140693902969360e-01,3.883186727762222e-02,-4.470661282539368e-01,6.028869003057480e-02,6.590546369552612e-01,-1.140628084540367e-01,-8.824697136878967e-02,2.127826213836670e-01,9.013312309980392e-02,4.726253747940063e-01,-1.972367055714130e-02,7.079900056123734e-02,6.661091446876526e-01,-4.007202684879303e-01,-7.106503844261169e-02,-2.036904543638229e-01,-1.912670582532883e-02,-8.291292190551758e-02,1.211826652288437e-01,-4.327061474323273e-01,5.095837712287903e-01,1.974958181381226e-02},
	{-1.512133330106735e-01,-2.544591724872589e-01,1.350448876619339e-01,6.341710686683655e-02,-8.267341554164886e-02,1.737120896577835e-01,-1.458615809679031e-01,3.666468262672424e-01,1.691141277551651e-01,-2.986190617084503e-01,-2.807261049747467e-01,5.592993497848511e-01,-2.680943906307220e-02,-1.735433936119080e-01,-2.555451989173889e-01,-7.573265582323074e-02,3.853688538074493e-01,-9.502660483121872e-02,-3.515516221523285e-01,3.786852955818176e-01,1.588113456964493e-01,1.933782249689102e-01,4.487943649291992e-01,-8.618646860122681e-02,-2.157052978873253e-02,-1.470616608858109e-01,-1.979795779334381e-04,-7.521290332078934e-02,-1.824925467371941e-02,3.377702832221985e-02,-2.763898670673370e-01,-5.681124329566956e-02,3.469651937484741e-01,-5.017251893877983e-02,3.320820257067680e-02,9.007031098008156e-03,-1.219169795513153e-01,-3.334793448448181e-01,2.714385986328125e-01,-3.601880073547363e-01,7.516838908195496e-01,3.870607018470764e-01,-1.480070948600769e-01,-6.331542506814003e-03,2.374210506677628e-01,-3.860004842281342e-01,6.799882650375366e-02,-5.515586212277412e-02,2.203810662031174e-01},
	{5.067566037178040e-01,-2.451443821191788e-01,-1.190555021166801e-01,5.504966974258423e-01,-1.659125536680222e-01,1.698687672615051e-01,1.341793537139893e-01,-3.003887236118317e-01,4.034347236156464e-01,8.763908408582211e-03,-2.393772900104523e-01,-1.667473167181015e-01,-4.107040464878082e-01,3.381166607141495e-02,-4.088301658630371e-01,1.268399041146040e-02,5.682282447814941e-01,1.288868039846420e-01,2.982412576675415e-01,-5.123499035835266e-02,-1.706792414188385e-01,-4.550344124436378e-02,2.638444602489471e-01,-6.323502212762833e-02,-6.674271076917648e-02,6.048667430877686e-01,-1.729158461093903e-01,-4.439233541488647e-01,3.450312614440918e-01,6.540986895561218e-02,-2.057826966047287e-01,1.513114478439093e-02,2.349137514829636e-01,-3.523277491331100e-02,5.545558929443359e-01,-2.189398407936096e-01,-8.260761201381683e-02,-3.782651126384735e-01,6.461799144744873e-02,-4.767372608184814e-01,1.220693513751030e-01,-3.838410377502441e-01,1.998495161533356e-01,1.338524967432022e-01,-2.670339345932007e-01,2.515599131584167e-02,-4.141213595867157e-01,-5.061834454536438e-01,-3.773676753044128e-01}};
float weights_tr1_1_0[49]={-6.139276083558798e-03,-2.632302045822144e-01,5.959560275077820e-01,-1.996860653162003e-01,3.110180497169495e-01,-1.869390308856964e-01,2.063575685024261e-01,1.120603680610657e-01,1.417179852724075e-01,3.060556650161743e-01,-2.303994297981262e-01,1.120764911174774e-01,-2.615432143211365e-01,3.240095078945160e-01,6.934192031621933e-02,1.298785060644150e-01,9.247148036956787e-02,2.056058347225189e-01,4.342036843299866e-01,-3.832137957215309e-02,4.653044044971466e-02,4.418709874153137e-01,2.556064911186695e-02,-7.356450557708740e-01,-1.303187608718872e-01,-4.433754384517670e-01,-7.758816331624985e-02,-1.711422577500343e-02,4.331273734569550e-01,-4.557008668780327e-02,-2.999718785285950e-01,2.393932938575745e-01,9.906905889511108e-02,2.112975120544434e-01,-8.216490596532822e-02,2.279431223869324e-01,1.958773471415043e-02,-2.819978892803192e-01,2.077534794807434e-02,-1.449945420026779e-01,-2.805267870426178e-01,-2.367269098758698e-01,-1.504021584987640e-01,3.823144733905792e-01,-5.397880077362061e-01,-6.237921118736267e-01,-4.493950009346008e-01,-8.564514666795731e-02,-4.585992395877838e-01};
float weights_tr2_0_0[49][35]={
	{6.340516358613968e-02,1.690680533647537e-01,-1.899341940879822e-01,1.917193084955215e-02,1.816185861825943e-01,-4.157815501093864e-02,1.831413507461548e-01,-3.293779194355011e-01,-1.470444351434708e-01,-4.338820278644562e-02,1.831986159086227e-01,-3.533505201339722e-01,-4.389544427394867e-01,-5.570679903030396e-01,-5.561248399317265e-03,2.710164524614811e-02,2.242764458060265e-03,-2.193925976753235e-01,-3.099282085895538e-01,3.430702388286591e-01,2.029388584196568e-02,2.816095016896725e-02,-1.263281106948853e-01,-2.671076059341431e-01,-1.238906849175692e-02,-9.618445485830307e-02,-4.493676424026489e-01,1.433095484972000e-01,-1.211521178483963e-01,-7.157502770423889e-01,4.421745240688324e-01,-4.181810021400452e-01,-5.984665080904961e-02,-1.411529779434204e-01,1.269560605287552e-01},
	{-5.783105641603470e-02,2.089477181434631e-01,-9.410279802978039e-03,8.385458588600159e-02,7.857138663530350e-02,1.083598658442497e-01,1.830668449401855e-01,4.077300727367401e-01,-3.314732313156128e-01,-4.294758737087250e-01,-1.651560515165329e-01,1.220858171582222e-01,3.056161403656006e-01,-1.234292984008789e-01,-6.076490506529808e-02,-1.907185763120651e-01,1.646761447191238e-01,-2.312355637550354e-01,-3.188560903072357e-02,4.211923107504845e-02,-4.830592870712280e-02,1.979002170264721e-02,-4.140599071979523e-02,6.959260255098343e-02,-1.586345024406910e-02,6.689670681953430e-01,-5.061264038085938e-01,-2.789137065410614e-01,-2.010155618190765e-01,-1.442773044109344e-01,-3.071848452091217e-01,2.508391141891479e-01,-1.535909920930862e-01,-6.112540960311890e-01,-8.577185124158859e-02},
	{-4.898174405097961e-01,-8.752106875181198e-02,9.289424419403076e-01,-2.773570120334625e-01,-2.244353890419006e-01,1.155340671539307e-01,-6.019258499145508e-01,1.015240140259266e-02,7.720075547695160e-02,3.871651887893677e-01,-5.520458817481995e-01,-3.814658820629120e-01,-1.703105121850967e-02,-1.659295707941055e-01,-6.573632359504700e-02,5.320253372192383e-01,2.511593997478485e-01,2.493943721055984e-01,-9.442581981420517e-02,4.308774471282959e-01,1.500393152236938e-01,8.163561820983887e-01,-3.704518675804138e-01,1.196265444159508e-01,5.610017180442810e-01,2.948750555515289e-01,5.099686793982983e-03,-1.145956665277481e-01,-2.009023576974869e-01,2.083516567945480e-01,1.186348944902420e-01,-1.637746542692184e-01,2.606847584247589e-01,-7.514640688896179e-02,4.157390072941780e-02},
	{1.427793204784393e-01,-1.023020297288895e-01,2.431286871433258e-02,7.747428119182587e-02,-9.768720716238022e-02,1.938862204551697e-01,4.181317090988159e-01,1.195884793996811e-01,1.798729896545410e-01,2.528255581855774e-01,1.332817822694778e-01,-4.987685680389404e-01,6.477749347686768e-01,-7.657941579818726e-01,1.706391125917435e-01,1.215379834175110e-01,-4.984396323561668e-02,7.006711512804031e-02,-1.838839203119278e-01,-6.438183039426804e-02,4.123989343643188e-01,-3.206829354166985e-02,-1.117837056517601e-01,3.183855712413788e-01,-3.136026114225388e-02,2.965401709079742e-01,4.250719547271729e-01,1.295347325503826e-02,-7.172203622758389e-03,8.283454179763794e-01,1.130288094282150e-01,9.218008071184158e-02,-1.492639482021332e-01,-1.096436455845833e-01,2.884059250354767e-01},
	{1.370702087879181e-01,1.688542775809765e-02,-8.801741898059845e-02,-1.621467918157578e-01,-1.904534846544266e-01,1.717690229415894e-01,-1.002940386533737e-01,1.096773147583008e+00,-9.685424715280533e-02,1.983839869499207e-01,-1.263556927442551e-01,-6.716098785400391e-01,-3.358893394470215e-01,1.121457666158676e-01,-1.050679013133049e-01,-1.432419568300247e-01,-7.861791178584099e-03,1.759362593293190e-02,5.424825102090836e-02,8.075259625911713e-02,6.260787844657898e-01,-1.079484596848488e-01,3.173442929983139e-02,-1.807652711868286e-01,-8.494926989078522e-02,-8.268871158361435e-02,-3.328946530818939e-01,4.116547759622335e-03,1.971737109124660e-02,3.136019036173820e-02,-8.966691792011261e-02,-1.735604405403137e-01,-3.071430921554565e-01,1.509974617511034e-02,-4.957940280437469e-01},
	{4.151122644543648e-02,1.709091663360596e-01,-2.753724716603756e-02,1.904242485761642e-01,-1.196318641304970e-01,1.050669848918915e-01,1.103195428848267e+00,-5.309297516942024e-02,-1.256090588867664e-02,1.322876960039139e-01,1.132175847887993e-01,1.436264961957932e-01,-2.256979234516621e-02,-7.609204202890396e-02,-2.109693884849548e-01,-3.874161243438721e-01,8.129227906465530e-02,9.966454654932022e-02,1.400196105241776e-01,-2.520227134227753e-01,-4.770582020282745e-01,-5.019077062606812e-01,3.673174381256104e-01,-6.057186126708984e-01,2.834484912455082e-02,-5.150403976440430e-01,-3.036017715930939e-01,3.260585293173790e-02,-1.806339323520660e-01,-1.606934070587158e-01,9.882194548845291e-02,3.528746366500854e-01,3.665918111801147e-01,1.170156989246607e-02,1.986730694770813e-01},
	{-4.827819764614105e-01,5.906513333320618e-02,1.311323493719101e-01,-1.232209503650665e-01,-2.436416596174240e-01,6.197253987193108e-02,-1.087583065032959e+00,2.108887434005737e-01,-2.778124623000622e-02,4.477942585945129e-01,3.366135656833649e-01,-4.123398065567017e-01,-1.590219736099243e-01,1.240585818886757e-01,2.587360888719559e-02,1.809622496366501e-01,-3.915453702211380e-02,2.076624482870102e-01,-6.034075468778610e-02,-3.811412155628204e-01,-4.918648600578308e-01,-4.106716066598892e-02,4.150975123047829e-02,-9.148412942886353e-02,-5.661423206329346e-01,1.482929587364197e-01,3.943542018532753e-03,1.808576285839081e-02,-3.744886219501495e-01,-5.487822741270065e-02,3.380994871258736e-02,-3.105899319052696e-02,5.164459943771362e-01,-5.987121462821960e-01,1.373097002506256e-01},
	{9.439735859632492e-02,1.776116527616978e-02,3.775294721126556e-01,2.710325121879578e-01,2.249605208635330e-01,3.022938966751099e-01,-7.623524218797684e-02,3.764922320842743e-01,1.609317213296890e-02,-2.060610204935074e-01,-5.872564017772675e-02,-7.320269346237183e-01,3.436715155839920e-02,6.916572898626328e-02,-6.648670434951782e-01,2.017648667097092e-01,-2.214352786540985e-02,5.197860673069954e-02,-3.298418521881104e-01,-6.362915635108948e-01,6.405273675918579e-01,2.006914839148521e-02,-6.230290047824383e-03,-1.146550849080086e-01,2.215682715177536e-01,6.036211550235748e-02,5.670806020498276e-02,4.621047899127007e-02,2.388823032379150e-01,-1.395806372165680e-01,1.560354679822922e-01,-5.301230773329735e-02,-4.817931056022644e-01,1.678873002529144e-01,2.776030600070953e-01},
	{1.053096055984497e-01,-1.574124246835709e-01,-1.493371836841106e-02,7.827863097190857e-02,2.337111234664917e-01,-2.157821655273438e-01,-1.000392436981201e-01,2.730942368507385e-01,-4.454707205295563e-01,-6.052508950233459e-01,1.281490325927734e-01,-6.863984465599060e-02,-4.701457321643829e-01,-2.242663949728012e-01,3.558349013328552e-01,3.670899569988251e-01,1.173349842429161e-01,1.244677677750587e-01,1.523228883743286e-01,-1.884568482637405e-01,-1.446890681982040e-01,-1.160676628351212e-01,8.612689375877380e-02,3.664698004722595e-01,1.605780422687531e-02,1.550530195236206e-01,3.768171668052673e-01,7.926314324140549e-02,-1.846932619810104e-01,3.634293004870415e-02,1.789865493774414e-01,-5.804873108863831e-01,-1.041988730430603e-01,-2.822957336902618e-01,2.095515839755535e-02},
	{-3.038636744022369e-01,1.327968668192625e-02,-3.163958191871643e-01,-3.293188512325287e-01,1.348772197961807e-01,-8.097144961357117e-01,-2.428736537694931e-01,5.607369542121887e-02,-1.013198960572481e-02,8.024214208126068e-02,3.873537182807922e-01,4.746957123279572e-01,-3.426329791545868e-01,2.302219569683075e-01,-8.487239480018616e-01,-2.409563660621643e-01,-8.960840851068497e-02,2.000218629837036e-02,-3.923757374286652e-02,9.689303040504456e-01,4.993590414524078e-01,6.415839195251465e-01,-1.295312345027924e-01,1.985879987478256e-02,-2.786522507667542e-01,-2.796610891819000e-01,1.663756184279919e-02,-8.732351660728455e-02,-1.428330093622208e-01,2.169846892356873e-01,-2.031738758087158e-01,-1.717476099729538e-01,1.915153712034225e-01,1.103836670517921e-01,1.376853138208389e-01},
	{1.525110304355621e-01,5.156848430633545e-01,-4.667113348841667e-02,2.282391041517258e-01,2.945988671854138e-03,-4.503884017467499e-01,-1.510255783796310e-01,-2.593267560005188e-01,1.194029524922371e-01,3.543069958686829e-01,-7.683045696467161e-03,-2.013999223709106e-01,4.115602672100067e-01,2.808182127773762e-02,2.560446858406067e-01,-5.948754027485847e-02,3.098897933959961e-01,3.342007994651794e-01,2.737931907176971e-01,-2.417812198400497e-01,1.604822874069214e-01,5.904290080070496e-02,-5.933651328086853e-02,-3.957885503768921e-01,1.492778509855270e-01,-1.008521690964699e-01,-5.105965733528137e-01,1.550220698118210e-01,-5.968774482607841e-02,-4.282214939594269e-01,3.366500437259674e-01,6.389467120170593e-01,-5.823008716106415e-02,-7.660837769508362e-01,-5.089231207966805e-02},
	{-1.961247026920319e-01,4.804266616702080e-02,5.968977883458138e-02,-2.447623312473297e-01,-1.364647001028061e-01,8.446293883025646e-03,1.625757813453674e-01,6.994878500699997e-02,2.798379212617874e-02,1.795108467340469e-01,-5.772300362586975e-01,1.540923118591309e-01,-5.176438763737679e-02,-2.631233334541321e-01,-3.160579130053520e-03,1.975733935832977e-01,-6.987398266792297e-01,-6.506316661834717e-01,-2.031038254499435e-01,-3.844699263572693e-01,-1.831587851047516e-01,-3.222565725445747e-02,8.786369860172272e-02,1.242266874760389e-02,2.333661913871765e-01,-5.931342020630836e-03,-1.620291322469711e-01,7.507335394620895e-02,4.724133908748627e-01,8.139542490243912e-02,-5.420843362808228e-01,4.265071079134941e-02,1.134824529290199e-01,-3.171310126781464e-01,1.064544022083282e-01},
	{9.691923111677170e-02,2.450376003980637e-01,1.500975340604782e-01,-3.498638421297073e-02,-4.562516231089830e-03,-3.719114661216736e-01,-3.359470367431641e-01,4.774299263954163e-01,2.092131674289703e-01,-3.111284971237183e-01,3.497099280357361e-01,3.558520078659058e-01,1.214510127902031e-01,-3.111344277858734e-01,1.161208748817444e-01,1.177823767066002e-01,7.764083892107010e-02,6.530101597309113e-02,1.286617219448090e-01,1.723421514034271e-01,-2.149298973381519e-02,-4.424286633729935e-02,-1.031481027603149e-01,1.952344179153442e-01,-1.804540902376175e-01,2.357042133808136e-01,5.931120738387108e-02,-3.543618619441986e-01,2.610724866390228e-01,-3.942866623401642e-01,-3.365391790866852e-01,3.294245004653931e-01,2.139984220266342e-01,3.836964964866638e-01,8.921643346548080e-02},
	{1.066963151097298e-01,-5.407655239105225e-02,-1.873718053102493e-01,-3.427330553531647e-01,2.500175833702087e-01,-2.633947134017944e-01,-5.839596390724182e-01,5.942809581756592e-02,1.189898550510406e-01,9.591556340456009e-02,5.363271832466125e-01,-4.482189938426018e-02,9.652221202850342e-02,1.153512001037598e-01,-3.520893305540085e-02,-9.770774096250534e-02,1.206006258726120e-01,-1.787192672491074e-01,2.611410021781921e-01,9.534920006990433e-02,3.432333171367645e-01,1.673917472362518e-02,5.067094415426254e-02,-5.226895585656166e-02,4.453167021274567e-01,-3.738685697317123e-02,1.082181558012962e-01,-7.739231921732426e-03,5.586687326431274e-01,-3.198704421520233e-01,-1.038589596748352e+00,7.930035144090652e-02,4.257440939545631e-02,-3.188474178314209e-01,-3.356312811374664e-01},
	{-7.887531816959381e-02,-2.303544059395790e-02,3.849688917398453e-02,1.423217356204987e-01,-4.415304213762283e-02,-1.283306628465652e-01,2.066532671451569e-01,-6.463926434516907e-01,-3.100286126136780e-01,3.395334184169769e-01,9.115202724933624e-02,3.414974212646484e-01,-3.718588650226593e-01,1.709450334310532e-01,1.058141440153122e-01,8.978939615190029e-03,-2.245931923389435e-01,6.695441156625748e-02,2.506525218486786e-01,1.188919181004167e-03,-1.416584551334381e-01,-8.511335588991642e-03,-3.784730285406113e-02,-2.049943655729294e-01,1.267302930355072e-01,-1.479351669549942e-01,-4.472703635692596e-01,1.950705349445343e-01,2.034949883818626e-02,2.221411913633347e-01,1.321613192558289e-01,-5.679292082786560e-01,5.446182191371918e-02,2.061574608087540e-01,1.906571090221405e-01},
	{6.928680092096329e-02,-2.704663574695587e-01,2.376399040222168e-01,-3.876471817493439e-01,-1.330952793359756e-01,1.570684313774109e-01,-3.051208555698395e-01,-3.455230221152306e-02,-4.219493865966797e-01,3.999177515506744e-01,3.165367245674133e-01,4.768762737512589e-03,-2.946343123912811e-01,-1.438188850879669e-01,2.228712663054466e-02,-5.510221421718597e-02,2.951022684574127e-01,-3.538845106959343e-02,-1.542551070451736e-01,-1.512632220983505e-01,1.837661676108837e-02,-2.765560150146484e-02,5.663240328431129e-02,-7.339707016944885e-02,-1.329399819951504e-04,-1.641616225242615e-01,-2.881884276866913e-01,1.907057464122772e-01,6.686701625585556e-02,5.709103941917419e-01,-9.863901734352112e-01,-3.641465902328491e-01,2.432624548673630e-01,-1.187067925930023e-01,-4.397185444831848e-01},
	{1.963969320058823e-01,-5.329659208655357e-02,-1.922146528959274e-01,-1.464907675981522e-01,1.695177704095840e-01,7.530829906463623e-01,3.504054844379425e-01,-2.619379013776779e-02,3.811904415488243e-02,-1.418522149324417e-01,-3.241513967514038e-01,1.278448998928070e-01,2.523869574069977e-01,1.385337412357330e-01,2.997467219829559e-01,-4.898035228252411e-01,3.228468000888824e-01,-1.910926252603531e-01,5.426447391510010e-01,-2.179740071296692e-01,3.131743967533112e-01,-3.016274869441986e-01,1.077820658683777e-01,-1.136445030570030e-01,2.573673725128174e-01,-5.801901221275330e-01,-3.176824450492859e-01,-8.229823410511017e-02,-1.942836791276932e-01,-1.308384239673615e-01,-1.401205062866211e-01,-3.017982654273510e-02,4.473111033439636e-01,4.104919731616974e-01,1.260166168212891e-01},
	{-2.158226966857910e-01,-1.443907022476196e-01,-1.486151367425919e-01,4.324555397033691e-01,3.054295480251312e-01,-3.971517980098724e-01,8.680552840232849e-01,9.048448801040649e-01,2.739476971328259e-02,8.377967029809952e-02,2.372947335243225e-01,1.644688099622726e-02,-1.146238744258881e-01,3.554087877273560e-01,3.673198819160461e-02,-2.406293898820877e-01,7.744341343641281e-02,-6.295046955347061e-02,1.377349793910980e-01,-5.451158061623573e-02,9.664577990770340e-02,-5.494138598442078e-02,-3.843255713582039e-02,1.807773113250732e-02,-8.092399835586548e-01,-2.638677656650543e-01,9.705560654401779e-02,-6.637939810752869e-02,-1.621593721210957e-02,2.870258092880249e-01,3.648100420832634e-03,-9.559807926416397e-02,-2.276247292757034e-01,3.038374148309231e-02,6.440478563308716e-02},
	{-2.036856859922409e-01,2.593213021755219e-01,-9.548912942409515e-02,2.473883032798767e-01,5.283390358090401e-02,-1.030241772532463e-01,-2.873615920543671e-01,-7.114797085523605e-02,2.205618917942047e-01,-6.395678520202637e-01,2.842560708522797e-01,4.122444242238998e-02,-4.426113367080688e-01,4.910965859889984e-01,-9.159188717603683e-02,-1.362676173448563e-01,-5.836492180824280e-01,2.312241494655609e-01,-1.536852587014437e-02,1.999471038579941e-01,-9.998254477977753e-02,4.230239242315292e-02,3.693648427724838e-02,-2.739521563053131e-01,1.195381116122007e-02,2.983128726482391e-01,2.246577441692352e-01,-1.342069059610367e-01,5.210238695144653e-01,7.365408539772034e-02,3.127330541610718e-01,-1.648260802030563e-01,-9.984630346298218e-02,-6.162207722663879e-01,-1.452572196722031e-01},
	{-1.591852307319641e-01,-6.960338354110718e-02,-1.563722826540470e-02,-2.638888545334339e-02,-2.560415863990784e-01,1.744205132126808e-02,2.594433426856995e-01,-3.998416066169739e-01,-4.965891316533089e-02,-3.154042363166809e-01,3.424983024597168e-01,4.042629301548004e-01,-1.125280163250864e-03,1.607258915901184e-01,-1.135618314146996e-01,1.633128151297569e-02,-9.741601347923279e-01,3.241661489009857e-01,7.943540066480637e-02,-3.049440979957581e-01,7.797194719314575e-01,1.007083281874657e-01,9.233768284320831e-02,2.238372266292572e-01,-1.969590634107590e-01,-2.814818359911442e-02,8.867913484573364e-02,2.395815961062908e-02,-4.269538223743439e-01,-6.501907855272293e-02,1.724862754344940e-01,4.124903352931142e-04,3.637385368347168e-02,-6.982010602951050e-02,-1.727139502763748e-01},
	{4.033847749233246e-01,-1.783979125320911e-02,9.631118178367615e-01,2.232405096292496e-01,-2.122475057840347e-01,-1.755642592906952e-01,-8.014854192733765e-01,-2.072278857231140e-01,-1.858778856694698e-02,-5.752735957503319e-02,-2.272359579801559e-01,-1.567695140838623e-01,1.847045570611954e-01,-3.104260191321373e-02,-3.253640234470367e-02,-1.602620929479599e-01,-8.366712927818298e-02,-2.392679005861282e-01,2.494698911905289e-01,-7.131598591804504e-01,-3.066942691802979e-01,-9.158286452293396e-02,-3.276629447937012e-01,-1.103412583470345e-01,6.406382471323013e-02,-3.865997493267059e-01,-6.907814182341099e-03,-2.395057678222656e-02,2.604553941637278e-03,8.528676629066467e-02,3.197054862976074e-01,-8.272226899862289e-02,-4.465942978858948e-01,4.703492522239685e-01,-4.407623708248138e-01},
	{-1.878906041383743e-01,4.128818213939667e-02,1.839463710784912e-01,-5.626790970563889e-02,1.194809097796679e-02,-7.227889448404312e-02,4.603484869003296e-01,2.151755057275295e-02,5.295795947313309e-02,1.315527558326721e-01,-3.430901765823364e-01,8.929081261157990e-03,1.988520286977291e-02,3.354072868824005e-01,-1.246897131204605e-01,-6.591149568557739e-01,3.936305642127991e-01,-4.729771614074707e-01,2.407894469797611e-02,-2.371164411306381e-01,3.222858309745789e-01,-2.155777812004089e-01,-6.126293912529945e-02,2.734137773513794e-01,2.834155261516571e-01,-4.258776083588600e-03,9.722084552049637e-02,-8.010061085224152e-02,-5.967093110084534e-01,2.308595925569534e-01,6.062669157981873e-01,7.382653187960386e-03,-4.795211181044579e-02,2.477240115404129e-01,-6.167888045310974e-01},
	{3.114260733127594e-01,2.670510858297348e-02,1.154156625270844e-01,-1.399815380573273e-01,-1.119334101676941e-01,-4.046910703182220e-01,8.812026977539062e-01,-2.709762752056122e-01,1.701902225613594e-02,5.070830881595612e-02,5.657259374856949e-02,-9.474818408489227e-02,3.883977979421616e-02,-5.800309777259827e-01,2.216861993074417e-01,3.336348012089729e-02,-7.485947608947754e-01,7.958943396806717e-02,1.477629244327545e-01,-2.869645059108734e-01,2.075404077768326e-01,4.208076372742653e-02,-3.824772536754608e-01,4.565814509987831e-02,1.733399629592896e-01,9.159362316131592e-02,8.190977573394775e-02,-1.609869450330734e-01,1.215332075953484e-01,-1.067281588912010e-01,-9.351623058319092e-02,3.796504810452461e-02,-3.358595073223114e-02,3.349226713180542e-01,1.173160076141357e-01},
	{3.841821551322937e-01,1.515874713659286e-01,1.574598997831345e-01,-9.093860536813736e-02,7.456869352608919e-04,9.041989594697952e-02,6.629924476146698e-02,1.630805432796478e-01,1.512124538421631e-01,-9.164813905954361e-02,-9.117728471755981e-01,-1.841513663530350e-01,-1.983719766139984e-01,-4.227762222290039e-01,-3.323413729667664e-01,-3.135265707969666e-01,2.694916725158691e-01,1.753683835268021e-01,1.649904251098633e-01,6.258034110069275e-01,-4.899476468563080e-01,-4.651621356606483e-02,-9.146415442228317e-02,3.620683848857880e-01,2.894994914531708e-01,3.477492034435272e-01,3.729138672351837e-01,-1.655413359403610e-01,-2.806876003742218e-01,1.919218748807907e-01,-5.823882818222046e-01,2.643527276813984e-02,-3.667023479938507e-01,-4.821951687335968e-01,-1.029512193053961e-02},
	{1.792991906404495e-01,8.088204078376293e-03,-1.654700189828873e-01,1.394952386617661e-01,3.383621275424957e-01,3.394094705581665e-01,6.024564057588577e-02,-2.112373262643814e-01,-3.289003670215607e-02,1.306465119123459e-01,4.708176255226135e-01,4.965345840901136e-03,-3.470730185508728e-01,-3.042532801628113e-01,1.092371940612793e-01,-1.064371541142464e-01,6.620518863201141e-02,5.947077870368958e-01,-4.685205519199371e-01,3.746897578239441e-01,6.242834329605103e-01,6.191003918647766e-01,5.405774712562561e-01,-4.751749038696289e-01,4.028666615486145e-01,1.936813890933990e-01,8.982519060373306e-02,-9.787971526384354e-02,1.533624827861786e-01,-6.413893401622772e-02,-1.887353137135506e-02,4.785403981804848e-02,2.527870535850525e-01,1.640822440385818e-01,-1.791534274816513e-01},
	{-5.219452548772097e-03,3.745133802294731e-02,1.449989080429077e-01,5.373375490307808e-02,-3.013873398303986e-01,9.114336967468262e-02,-6.899251341819763e-01,2.530317306518555e-01,-7.077507674694061e-02,-1.424861848354340e-01,-7.896621823310852e-01,6.250501424074173e-02,-8.057316392660141e-02,3.506452441215515e-01,-2.327357232570648e-01,-2.434814423322678e-01,-2.448911815881729e-01,-6.304650902748108e-01,8.528018742799759e-02,-4.316501617431641e-01,-1.443091034889221e-01,2.470063418149948e-01,4.017506539821625e-01,-4.328479766845703e-01,-2.714285850524902e-01,-2.464360184967518e-02,3.178702890872955e-01,-5.701252073049545e-02,4.491524100303650e-01,2.048331871628761e-02,-3.050897084176540e-02,4.324188828468323e-02,-1.046479120850563e-01,-1.483526527881622e-01,-2.850924134254456e-01},
	{-6.425498984754086e-03,-2.048405110836029e-01,4.648032132536173e-03,1.658699475228786e-02,1.093908846378326e-01,3.284975886344910e-01,3.101382553577423e-01,-1.112296953797340e-01,-2.816304564476013e-01,-6.378572583198547e-01,1.912000775337219e-02,-3.737612366676331e-01,6.762496381998062e-02,5.747361779212952e-01,-1.011668890714645e-01,-1.141524035483599e-02,8.516147732734680e-02,-1.807549893856049e-01,-7.049612700939178e-03,-2.332863397896290e-02,-3.205702081322670e-02,-8.374505490064621e-02,1.119665708392859e-02,4.011378884315491e-01,-1.874494850635529e-01,2.223648726940155e-01,4.957539960741997e-02,-2.236499339342117e-01,-1.557737141847610e-01,8.629227429628372e-02,-3.759157285094261e-02,6.418492794036865e-01,1.304051280021667e-01,-2.615131065249443e-02,-5.776573345065117e-02},
	{1.935531795024872e-01,2.161790244281292e-02,-7.737109065055847e-02,-2.198574244976044e-01,4.407400488853455e-01,2.919606566429138e-01,-5.324493646621704e-01,-2.513883411884308e-01,4.476442188024521e-02,-9.710417687892914e-02,5.901095867156982e-01,-4.966764897108078e-02,-1.409235000610352e-01,-5.212380737066269e-02,-4.255776107311249e-02,2.491815686225891e-01,-2.022988498210907e-01,-1.320930421352386e-01,8.438597433269024e-03,-3.544323891401291e-02,-2.653760015964508e-01,3.978215157985687e-02,-8.793162554502487e-02,-3.366145119071007e-02,-1.695211380720139e-01,3.780786097049713e-01,-8.820645511150360e-02,-4.254677519202232e-02,-7.126712799072266e-01,2.426709085702896e-01,1.857117861509323e-01,-7.841839641332626e-02,-1.764191538095474e-01,-9.302161633968353e-02,-4.404997229576111e-01},
	{-2.670932374894619e-02,2.421078085899353e-01,6.436009705066681e-02,3.190923035144806e-01,-2.494314908981323e-01,2.436359971761703e-01,-4.412768483161926e-01,6.875529140233994e-02,3.087964951992035e-01,3.872350603342056e-02,9.819532185792923e-02,-1.760277748107910e-01,-6.024220585823059e-01,4.642013311386108e-01,9.441575407981873e-02,8.927467279136181e-03,-3.108898997306824e-01,1.342304944992065e-01,-2.328169345855713e-01,-2.351514846086502e-01,4.988016188144684e-01,-2.776546170935035e-03,4.597971588373184e-02,3.101123496890068e-03,2.324425727128983e-01,1.370195001363754e-01,1.925199031829834e-01,-3.628716468811035e-01,4.109545648097992e-01,1.855861693620682e-01,-4.141190438531339e-04,-1.705441027879715e-01,-1.395079046487808e-01,7.519751787185669e-01,3.809810280799866e-01},
	{-5.313280597329140e-02,-4.421981796622276e-02,-1.492313593626022e-01,-3.655322492122650e-01,3.814579248428345e-01,4.724484980106354e-01,-5.640172213315964e-02,1.767081618309021e-01,2.648936808109283e-01,1.804998964071274e-01,3.684316873550415e-01,3.021616339683533e-01,4.255230724811554e-01,-3.805894553661346e-01,1.610722579061985e-02,-2.228094786405563e-01,2.276629507541656e-01,7.444027066230774e-02,-1.744011193513870e-01,1.500739008188248e-01,-1.482469215989113e-02,1.389533281326294e-01,1.155795156955719e-01,-3.685643523931503e-02,-4.197183996438980e-02,9.976071119308472e-02,1.626571267843246e-01,1.691451966762543e-01,-6.253425031900406e-02,2.079935669898987e-01,-1.388150304555893e-01,9.131143242120743e-02,-5.124185234308243e-02,3.671905696392059e-01,-2.541108727455139e-01},
	{-2.749310433864594e-01,1.154143922030926e-02,-4.293733462691307e-02,-9.357546456158161e-03,2.086762487888336e-01,-4.048068542033434e-03,-2.430625259876251e-01,1.475544571876526e-01,3.754490017890930e-01,7.144960761070251e-01,7.825789041817188e-03,4.956126511096954e-01,-8.617443442344666e-01,2.763646841049194e-01,1.772320121526718e-01,2.187161296606064e-01,6.364429742097855e-02,-6.064533591270447e-01,-5.779775232076645e-02,6.842751801013947e-02,-1.571604013442993e-01,1.481801122426987e-01,-4.538435488939285e-02,7.112066149711609e-01,-3.865787684917450e-01,2.851573377847672e-02,3.560142815113068e-01,-5.771509930491447e-02,2.785851061344147e-01,4.148239493370056e-01,-9.414619952440262e-02,5.290040969848633e-01,1.020812336355448e-02,-1.150335222482681e-01,6.501740962266922e-02},
	{-2.921873703598976e-02,-1.051049157977104e-01,-4.867901206016541e-01,7.721416652202606e-02,1.383183300495148e-01,-1.089361384510994e-01,-7.672131061553955e-01,1.088043153285980e-01,5.376588553190231e-02,-2.587998807430267e-01,5.790317058563232e-01,5.853300094604492e-01,3.121892511844635e-01,8.065357059240341e-02,2.279580533504486e-01,-3.331196308135986e-02,6.918876897543669e-03,2.374276816844940e-01,1.276746839284897e-01,-4.685477018356323e-01,-1.257439702749252e-01,4.474441409111023e-01,-4.745486378669739e-01,7.341300845146179e-01,1.062843799591064e-01,1.231255605816841e-01,1.543667633086443e-02,7.127515226602554e-02,1.188848763704300e-01,-1.034212391823530e-02,-1.205339580774307e-01,-2.490769624710083e-01,-7.529815286397934e-02,2.397437207400799e-02,-1.975190639495850e-01},
	{-3.171389102935791e-01,1.309425830841064e-01,1.669845730066299e-01,-9.763954579830170e-02,-9.596635401248932e-02,-9.370323270559311e-02,-1.738164871931076e-01,2.767634093761444e-01,-1.586117893457413e-01,-4.923530817031860e-01,-7.465783357620239e-01,1.048747897148132e-01,-1.420359965413809e-02,1.770833730697632e-01,7.943081110715866e-02,-1.012350767850876e-01,3.977436125278473e-01,-1.817199140787125e-01,1.317728161811829e-01,1.123935803771019e-01,-4.662706702947617e-02,6.563717126846313e-02,-1.557148545980453e-01,-8.457439951598644e-03,-1.308106929063797e-01,8.188976347446442e-02,2.627401649951935e-01,-1.774414777755737e-01,2.654144167900085e-01,-9.054230898618698e-02,1.563197374343872e-01,-3.325806856155396e-01,1.164862215518951e-01,-6.463921070098877e-02,2.314860820770264e-01},
	{-3.658435493707657e-02,-8.697761595249176e-02,9.805091470479965e-02,5.784195661544800e-01,3.730897009372711e-01,-1.526263803243637e-01,6.904256343841553e-01,-5.513895153999329e-01,3.097287751734257e-02,6.390762329101562e-02,3.744598329067230e-01,-2.838435582816601e-02,-2.938742041587830e-01,3.439595103263855e-01,-1.989352107048035e-01,-1.688678711652756e-01,1.505974978208542e-01,-2.704507112503052e-01,-8.719982951879501e-02,4.662225544452667e-01,-8.787320554256439e-02,1.570543646812439e-01,2.391453385353088e-01,5.857035145163536e-02,-2.420469075441360e-01,6.497806869447231e-03,-1.011769846081734e-01,3.290854766964912e-02,1.074145883321762e-01,-2.733021974563599e-01,2.156295776367188e-01,4.327585920691490e-02,3.697307705879211e-01,1.900479346513748e-01,2.028487026691437e-01},
	{2.166533917188644e-01,8.508515544235706e-03,-2.525686100125313e-02,-4.705189764499664e-01,1.267202347517014e-01,-2.363858371973038e-02,2.210248857736588e-01,-6.632210016250610e-01,1.622289866209030e-01,-4.617651924490929e-02,6.403871178627014e-01,2.072180658578873e-01,7.881112396717072e-02,7.852958440780640e-01,3.350829482078552e-01,4.162019491195679e-01,9.433456510305405e-02,-3.873772546648979e-02,6.515474617481232e-02,4.292657077312469e-01,-2.141919732093811e-02,2.169343642890453e-02,-6.167675182223320e-02,8.327494375407696e-03,1.688155694864690e-03,-8.609824813902378e-03,2.169411778450012e-01,-1.401029527187347e-01,2.807780802249908e-01,1.715577207505703e-02,-9.665776789188385e-02,3.031848073005676e-01,9.782256186008453e-02,3.134771808981895e-02,9.453238546848297e-02},
	{-9.282381832599640e-02,-9.110610932111740e-02,1.333753019571304e-01,-2.673286199569702e-01,2.168866842985153e-01,-4.839586839079857e-02,5.697846412658691e-01,1.893109381198883e-01,3.363027423620224e-02,-3.665309548377991e-01,1.572293788194656e-01,3.002291321754456e-01,1.583531498908997e-01,2.066102921962738e-01,-1.068621724843979e-01,1.880115568637848e-01,1.507255584001541e-01,1.227772757411003e-01,-3.948657587170601e-02,-3.136668205261230e-01,-2.259327918291092e-01,-1.559520483016968e+00,-1.181116998195648e-01,4.372564852237701e-01,3.867895901203156e-01,-5.565172433853149e-01,6.294247228652239e-03,7.699038088321686e-02,1.786227822303772e-01,-9.501586109399796e-02,-7.404002547264099e-02,-2.229391783475876e-01,-2.051709294319153e-01,6.272922456264496e-02,2.042559087276459e-01},
	{-1.132387146353722e-01,1.148751974105835e-01,4.075912013649940e-02,-2.332035452127457e-01,-3.355659544467926e-01,-3.972797691822052e-01,-2.220861351815984e-04,-5.416440963745117e-01,1.120930910110474e-01,-2.715735733509064e-01,5.899136886000633e-03,-3.886476755142212e-01,1.966495811939240e-01,-8.674927055835724e-02,-1.490622460842133e-01,-3.565827608108521e-01,-5.392441526055336e-02,4.503906667232513e-01,-3.629260063171387e-01,-4.844797253608704e-01,4.465447366237640e-02,-2.712986245751381e-02,1.824196577072144e-01,-8.636349439620972e-02,1.112705096602440e-02,3.795789182186127e-02,1.299233287572861e-01,-3.522812202572823e-02,1.858740150928497e-01,-4.412528276443481e-01,5.061581730842590e-01,1.633546873927116e-02,1.280897259712219e-01,-1.286376863718033e-01,-8.877914398908615e-02},
	{1.366987079381943e-01,-1.457266211509705e-01,-3.402142971754074e-02,3.220260143280029e-01,3.448017239570618e-01,2.137372493743896e-01,2.647811546921730e-02,-9.026881307363510e-02,1.639984548091888e-01,1.794747635722160e-02,2.123977094888687e-01,4.512917101383209e-01,-2.383678555488586e-01,-2.092758715152740e-01,-1.788230240345001e-01,1.982576847076416e-01,5.940050482749939e-01,-2.728658542037010e-02,5.453288927674294e-02,-2.376173138618469e-01,1.801304370164871e-01,-7.385415025055408e-03,-5.805971845984459e-02,-1.439622938632965e-01,-3.509384095668793e-01,-4.291166067123413e-01,4.343471825122833e-01,4.249887764453888e-01,1.242796331644058e-02,-3.046289086341858e-01,-4.994882345199585e-01,-1.162904202938080e-01,3.652767837047577e-02,6.304506212472916e-02,1.187595874071121e-01},
	{1.931698471307755e-01,-3.582922816276550e-01,2.895227447152138e-02,4.386222064495087e-01,-2.135650813579559e-01,1.841221600770950e-01,-2.664145231246948e-01,-1.140963062644005e-01,5.977589264512062e-02,-9.244728088378906e-02,-1.295124888420105e-01,-6.711400113999844e-03,7.349476218223572e-02,1.476297378540039e-01,3.552174866199493e-01,-3.934111595153809e-01,2.644726634025574e-01,1.846389770507812e-01,5.313121676445007e-01,-3.919576406478882e-01,-2.310427576303482e-01,4.445077180862427e-01,1.490431576967239e-01,-1.824471205472946e-01,-3.967283964157104e-01,-4.874567687511444e-01,2.240295410156250e-01,1.458202451467514e-01,2.683188021183014e-01,-3.663549665361643e-03,2.346280589699745e-02,-1.670401841402054e-01,-9.358795732259750e-02,-1.727018952369690e-01,-4.011021852493286e-01},
	{-7.345030456781387e-02,2.521488070487976e-02,-3.627580031752586e-02,-7.360146641731262e-01,-1.665719151496887e-01,3.127530589699745e-02,4.723869264125824e-02,-1.997976601123810e-01,-8.842561393976212e-03,9.321954846382141e-02,-7.717134952545166e-01,2.569366618990898e-02,-2.517440356314182e-02,5.439486503601074e-01,6.741993129253387e-03,-1.416113823652267e-01,1.414305269718170e-01,2.639884948730469e-01,-8.586318790912628e-02,-3.967252671718597e-01,1.617643088102341e-01,-3.456535935401917e-02,-1.410923302173615e-01,2.401584088802338e-01,-1.274362057447433e-01,-7.097852975130081e-02,1.078568026423454e-01,9.844446182250977e-02,-2.417508065700531e-01,2.671183645725250e-01,2.619056701660156e-01,1.109808906912804e-01,-1.043276023119688e-02,-1.186922565102577e-01,-1.442778557538986e-01},
	{7.302228361368179e-02,5.060478299856186e-02,-7.094021141529083e-02,1.933370232582092e-01,-8.229475468397141e-02,-1.901074498891830e-01,-3.750903904438019e-01,5.545222759246826e-02,5.335727334022522e-02,-9.690121514722705e-04,-2.397238612174988e-01,-5.390094518661499e-01,-2.952327765524387e-02,4.175937473773956e-01,1.006051182746887e+00,-2.469741106033325e-01,-5.926246941089630e-02,-1.519612967967987e-02,7.329100966453552e-01,6.138569116592407e-01,3.484555482864380e-01,7.720160484313965e-02,-1.146515831351280e-01,6.792543828487396e-02,-1.382544487714767e-01,-2.830962240695953e-01,-4.141527041792870e-02,-4.752640426158905e-02,-1.451857239007950e-01,7.142967730760574e-02,1.935825943946838e-01,-1.095854416489601e-01,4.634477496147156e-01,-4.781486093997955e-02,9.124966710805893e-02},
	{-1.667853742837906e-01,-6.670220941305161e-02,3.406694829463959e-01,-2.374990880489349e-01,5.507518649101257e-01,4.156962037086487e-01,3.950227200984955e-01,-7.664775103330612e-02,-2.986750099807978e-03,-7.489623129367828e-02,5.025413036346436e-01,4.750516265630722e-02,1.004105135798454e-01,-4.032824635505676e-01,6.488255262374878e-01,1.153000816702843e-01,1.058730632066727e-01,-2.276382595300674e-01,1.533860117197037e-01,1.095302850008011e-01,-4.704557955265045e-01,-2.344607561826706e-01,5.859057232737541e-02,8.333911746740341e-02,3.496940732002258e-01,1.961020380258560e-01,8.954242616891861e-02,1.040687263011932e-01,1.099196821451187e-01,-4.615770280361176e-02,-2.200520038604736e-01,1.270859539508820e-01,6.550336480140686e-01,-2.507370412349701e-01,-4.338561594486237e-01},
	{-2.450039833784103e-01,9.674997627735138e-02,1.185387596487999e-01,-1.503456234931946e-01,1.528040319681168e-01,-1.091555580496788e-01,1.054021477699280e+00,6.156486459076405e-03,7.688585668802261e-02,2.414447516202927e-01,2.594141066074371e-01,-3.668307792395353e-03,-1.462930887937546e-01,-8.861785172484815e-04,-2.327687665820122e-02,-3.815047815442085e-02,-2.593686059117317e-02,-2.686827778816223e-01,1.279995143413544e-01,4.981402158737183e-01,-7.770807147026062e-01,-1.287517905235291e+00,1.140545755624771e-01,-2.765884436666965e-02,1.719087213277817e-01,6.398152112960815e-01,2.145571820437908e-02,-1.001621969044209e-02,-1.276902556419373e-01,2.977926731109619e-01,-2.153668701648712e-01,-1.627428382635117e-01,3.861007988452911e-01,-1.294769253581762e-02,-1.233983784914017e-02},
	{5.933045595884323e-02,-1.999449431896210e-01,1.450079679489136e-01,-1.995353847742081e-01,-1.255284845829010e-01,3.209778070449829e-01,-6.426050066947937e-01,-3.788955807685852e-01,-2.422138154506683e-01,-7.527678459882736e-02,4.773125946521759e-01,3.903024792671204e-01,2.712536454200745e-01,3.200390934944153e-01,1.125153228640556e-01,-6.096736714243889e-02,4.955595731735229e-01,-2.335604429244995e-01,-1.960912793874741e-01,1.110096693038940e+00,-3.198282793164253e-02,4.623352587223053e-01,2.067577242851257e-01,-3.786413669586182e-01,1.735055446624756e-01,4.645768180489540e-02,-3.108854889869690e-01,1.977876126766205e-01,3.497202992439270e-01,2.202163636684418e-01,-4.486076906323433e-02,-1.305946428328753e-02,-7.798573374748230e-02,-1.610888242721558e-01,5.605497956275940e-02},
	{1.516226027160883e-02,-4.353994429111481e-01,3.332087770104408e-02,1.117745116353035e-01,-2.114863246679306e-01,1.860285252332687e-01,-4.116684943437576e-02,9.400063753128052e-02,-5.545842647552490e-01,4.356704354286194e-01,-7.548805791884661e-03,4.863212630152702e-02,6.924412846565247e-01,2.174157500267029e-01,-4.053830355405807e-02,3.061149735003710e-03,-1.902397274971008e-01,2.118799686431885e-01,5.055619031190872e-02,-9.622805565595627e-02,-4.619228839874268e-02,-3.897614404559135e-02,1.043682172894478e-01,2.728231251239777e-01,2.425251007080078e-01,-4.616114497184753e-01,-3.676651716232300e-01,5.936065912246704e-01,7.553374767303467e-02,4.228251576423645e-01,8.926828205585480e-02,3.643829524517059e-01,6.371709704399109e-02,3.312490284442902e-01,-6.414118409156799e-02},
	{-5.545848608016968e-01,-1.870574355125427e-01,-4.435485601425171e-02,2.232387661933899e-01,1.027066186070442e-01,6.299062818288803e-02,-1.660496741533279e-01,-3.369717895984650e-01,-2.811315059661865e-01,-4.125592112541199e-02,-1.059564352035522e+00,1.627882272005081e-01,4.804663062095642e-01,-1.651435345411301e-01,1.130929812788963e-01,5.767516493797302e-01,1.269038766622543e-01,5.203127861022949e-01,-2.106817960739136e-01,-7.343681156635284e-02,-2.339186146855354e-02,1.113692596554756e-01,-2.947585191577673e-03,-4.324469864368439e-01,-5.671808719635010e-01,-3.234372660517693e-02,-4.162068963050842e-01,9.551211446523666e-02,1.552818566560745e-01,-1.465936005115509e-01,3.601300716400146e-01,-9.004310518503189e-02,-1.053884401917458e-01,2.676421105861664e-01,4.512496888637543e-01},
	{3.097920119762421e-02,-1.725462675094604e-01,-6.179513335227966e-01,2.707765698432922e-01,-9.880719333887100e-02,-2.201181799173355e-01,2.646288871765137e-01,1.445288062095642e-01,9.143033623695374e-02,-1.926055997610092e-01,-2.905741147696972e-02,2.862681448459625e-01,-1.597382277250290e-01,-3.062787353992462e-01,-2.656642198562622e-01,3.836771845817566e-01,-6.862143278121948e-01,-4.310697317123413e-01,-3.811195492744446e-01,2.034134417772293e-01,3.419879823923111e-02,-1.132889151573181e+00,1.628439128398895e-01,3.106750175356865e-02,-2.894131243228912e-01,2.175190597772598e-01,2.201167047023773e-01,-1.041377782821655e-01,-4.678449928760529e-01,-1.578130014240742e-02,4.446142315864563e-01,-4.647062718868256e-02,-1.700710132718086e-02,4.537307657301426e-03,5.306778550148010e-01},
	{-2.576128840446472e-01,-1.164508685469627e-01,5.568607896566391e-02,8.965662121772766e-01,-2.372721135616302e-01,5.131145119667053e-01,1.867044717073441e-01,2.607083916664124e-01,-2.833081409335136e-02,7.838806509971619e-02,4.522411525249481e-01,2.434166893362999e-02,7.670983672142029e-02,-9.272350370883942e-02,7.952332496643066e-02,4.605607688426971e-02,-3.024115599691868e-02,2.619896531105042e-01,-4.670422896742821e-02,3.191481232643127e-01,4.914303496479988e-02,-6.903807073831558e-02,-2.907469570636749e-01,1.946200281381607e-01,1.102415919303894e-01,1.196583826094866e-02,-6.912328302860260e-02,-6.932419538497925e-02,6.266028285026550e-01,-6.094976067543030e-01,4.116748273372650e-02,-2.915247902274132e-02,-4.216930270195007e-01,5.363264307379723e-02,2.225439697504044e-01},
	{3.315078467130661e-02,1.031456813216209e-01,-1.556422710418701e-01,-2.727461457252502e-01,3.311545848846436e-01,-5.400677397847176e-02,3.393322527408600e-01,-1.617294251918793e-01,-3.232759237289429e-02,-7.887904345989227e-02,1.662023216485977e-01,1.010615304112434e-01,4.779155552387238e-01,-1.392339468002319e-01,-1.206819713115692e-01,-1.101885735988617e-02,-6.099193096160889e-01,-7.974147200584412e-01,-6.018196940422058e-01,2.231556922197342e-01,-3.300234079360962e-01,2.668353021144867e-01,-4.328418523073196e-02,-3.127291500568390e-01,-3.126118183135986e-01,1.360253691673279e-01,-2.435685545206070e-01,-2.170950174331665e-03,9.400305151939392e-02,-1.359603554010391e-01,-5.556472763419151e-02,1.611659377813339e-01,-3.640533685684204e-01,2.467460334300995e-01,1.345873326063156e-01}};
float weights_tr2_1_0[35]={6.024196147918701e-01,6.237072497606277e-02,-1.464427858591080e-01,-2.454639673233032e-01,-3.711110055446625e-01,-6.856945157051086e-02,8.598950225859880e-04,-4.106414690613747e-02,5.480342730879784e-02,2.512785792350769e-01,-3.470545113086700e-01,4.620587453246117e-02,-6.400270015001297e-02,-3.000240623950958e-01,-1.465860158205032e-01,2.285067550837994e-02,-2.129001319408417e-01,4.916013777256012e-01,1.628990173339844e-01,3.249791860580444e-01,-2.214055508375168e-01,-4.889294505119324e-02,1.147962585091591e-01,-7.778905332088470e-02,6.641379743814468e-02,-2.382729202508926e-01,-2.807436883449554e-02,8.517211675643921e-02,-4.053147733211517e-01,-5.395963415503502e-02,2.887942492961884e-01,1.631423979997635e-01,-2.152886092662811e-01,3.037244081497192e-01,-1.410697698593140e-01};
